// Neural Network File Format by Kyle Julian, Stanford 2016
7,4,9,45,
4,45,45,45,45,45,45,9,
0,
-8000.0,-100.0,-100.0,0.0,
8000.0,100.0,100.0,40.0,
0.0,0.0,0.0,20.0,-0.4325993796315559,
16000.0,200.0,200.0,40.0,3.102300000999995,
4.05857e-02,-4.23102e-02,5.90159e-02,1.56171e-01,
-1.87851e-01,-4.56223e-01,5.06039e-01,-7.55521e-02,
1.68723e+00,-1.65709e-01,1.90958e-01,3.76562e-01,
-3.70750e-01,2.89260e-02,2.93763e-01,2.34807e-01,
1.85202e+00,-4.21407e-01,4.36300e-01,1.38684e-01,
1.10015e-01,-6.53032e-01,3.25608e-01,3.70703e-01,
2.35520e+00,-1.99589e-01,1.82459e-01,-5.86816e-01,
-2.89706e+00,-7.60335e-02,6.91500e-02,7.34520e-02,
2.88709e+00,-2.86627e-01,2.64454e-01,-7.47959e-02,
-4.29179e+00,-9.83723e-02,1.05339e-01,-4.47133e-02,
-1.39495e+00,-4.58385e-01,5.42068e-01,1.42329e-01,
-2.58515e-02,-1.54636e+00,-2.89394e-04,-2.00098e-03,
6.50315e-01,-2.34320e-01,1.55238e-02,2.16719e-03,
-3.82128e+00,1.98532e-01,-1.51784e-01,1.08806e-01,
6.29309e-03,1.51809e+00,-9.19374e-03,-3.06940e-03,
4.00451e+00,-8.38260e-02,2.05204e-02,-1.13323e-01,
4.46537e-01,7.38560e-02,2.45009e-01,1.55384e-01,
8.68937e-01,-2.22658e-02,-2.79456e-02,-1.07816e+00,
1.74568e+00,-4.72879e-01,4.53001e-01,3.80471e-01,
7.62426e+00,-2.07534e-03,1.19806e-03,1.18754e-03,
1.85543e+00,1.91984e-01,-1.82287e-01,4.33891e-01,
2.48554e-02,-4.21071e-02,3.70884e-02,-4.56853e-03,
-3.27447e+00,-1.78165e-01,1.94811e-01,-6.94385e-01,
4.74197e-02,1.01068e+00,8.96629e-03,2.25078e-02,
9.44656e-02,4.31068e-01,2.51478e-01,2.40850e-02,
-1.76349e-01,2.67645e-01,-2.58555e-01,1.86793e-02,
-2.79879e-02,-1.55740e-02,-1.19597e-02,6.03150e-03,
1.28572e+00,-1.42513e-02,-9.47792e-03,1.53870e-02,
2.31264e-02,1.58708e+00,-8.16268e-03,-4.45387e-03,
-9.31316e-01,3.17747e-01,-1.54425e-01,1.16095e-01,
-2.70999e+00,-2.72150e-01,2.64075e-01,7.61103e-02,
1.50073e-02,1.00121e-02,1.93644e-02,1.17336e-03,
-2.02648e-01,-1.04807e-01,-1.84682e-01,1.17713e-01,
-1.41781e+00,1.74800e-01,-1.31999e-03,2.97944e-02,
1.72671e-01,-9.12675e-01,-9.35799e-04,-3.01950e-04,
-4.89909e-01,3.89439e-01,-6.43026e-01,3.05270e-02,
1.23627e+00,4.31296e-01,-3.68146e-01,1.10585e-02,
-2.21702e-03,-4.07576e-02,-8.23163e-03,3.75162e-05,
3.43179e-02,-1.12482e+00,-4.42493e-03,2.95620e-03,
1.34408e+00,-9.40811e-02,6.90977e-02,-1.11987e+00,
3.50801e-01,-1.43816e-01,1.77923e-01,2.18304e-01,
-3.68047e+00,1.02242e-02,1.88861e-02,-8.63104e-02,
-2.72536e+00,2.86179e-01,-3.75892e-01,1.94731e-01,
-3.19588e+00,1.87985e-01,-2.56436e-01,-2.16034e-02,
-7.35495e-01,-2.28981e-01,-2.81567e-01,-1.13224e-01,
9.28976e-02,
1.12612e-01,
1.64461e-01,
-6.80447e-02,
8.49503e-02,
-2.15192e-02,
-1.19772e-01,
1.47964e-01,
1.41004e-02,
3.82205e-02,
3.78889e-02,
-1.84390e-01,
-1.65626e-02,
-8.60751e-02,
-3.10545e-01,
4.07436e-02,
-4.57153e-02,
-4.26792e-01,
8.68675e-02,
1.11968e-02,
8.35886e-02,
-5.49366e-02,
-2.36263e-01,
-4.35181e-01,
-2.33925e-01,
3.96593e-02,
-3.97090e-02,
5.13461e-02,
2.16175e-02,
-9.06689e-02,
-2.34248e-01,
-2.81768e-02,
-1.02390e-01,
1.84011e-02,
1.20118e-01,
3.31094e-02,
-4.12408e-02,
-4.16283e-02,
1.50245e-01,
-3.21710e-01,
1.69765e-02,
4.54227e-02,
7.23557e-02,
4.12143e-02,
-1.65212e-01,
3.51852e-02,4.16166e-01,3.97679e-02,-1.06490e-01,-2.97850e-02,-1.39217e-01,7.15117e-02,4.98323e-02,-1.39426e-01,-3.21783e-01,-1.15701e-01,1.18809e+00,-2.25871e-01,7.31093e-01,7.78678e-01,3.47024e-02,3.08113e-01,2.49974e-01,-2.71671e-01,1.43760e-02,9.94430e-02,1.78218e-01,-4.42392e-01,-1.46838e-01,1.40337e+00,-2.29198e-01,2.37641e-01,2.04016e-01,-1.00675e+01,-1.00118e+00,3.72401e-01,-2.96500e-01,5.47896e-02,-3.89850e-01,4.72242e-01,2.35103e-01,2.53640e-01,2.56470e-01,5.39888e-01,4.84484e-02,1.55639e-01,-4.59805e-01,-5.27981e-02,5.45640e-02,-6.61450e-02,
-2.47596e-01,2.73794e-01,-9.23925e-01,-2.01833e-01,1.81743e-01,-8.05005e-01,1.45573e-01,-7.03538e-02,-5.62083e-02,8.61771e-02,-3.18311e-01,2.41368e-01,-7.51651e-01,3.05810e-01,-1.32412e-01,-4.29873e-02,7.27866e-01,-1.01222e+00,-4.66437e-02,5.00878e-01,-2.14515e-01,7.33346e-02,-3.02244e-01,-5.65795e-01,7.92920e-01,1.92035e-01,-5.50301e-02,-6.29877e-01,-1.12830e-01,-1.44354e+00,8.19387e-01,4.47014e-02,-7.42804e-01,1.60430e-01,2.19702e-03,2.06275e-01,-1.94051e-01,1.70900e-02,1.82021e-01,1.06689e-02,5.53446e-01,-1.81832e-01,-1.15102e+00,-1.36413e-01,-2.32306e-01,
-3.11664e-02,1.84385e-01,-2.18793e-01,-1.21032e-01,-2.70831e-01,3.00669e-01,3.12158e-01,1.07143e-01,-1.43218e+00,-2.85300e-02,1.03918e-01,5.30468e-01,1.34875e-01,-5.89296e-01,7.07434e-02,-2.34503e-01,-8.73781e-01,1.09918e+00,-1.65040e-01,1.70207e-01,-3.70837e-02,1.50786e-01,3.96791e-02,-3.62729e+00,-1.88655e+00,5.99536e-03,4.92354e-02,1.94425e-01,-1.07062e-01,-1.30503e-01,-8.67298e-01,1.88659e-02,-8.96598e-02,-1.99542e-01,1.48173e-01,2.24922e-01,5.44998e-01,1.04041e-01,1.29952e-01,1.01502e+00,4.58613e-02,1.82659e-01,-1.83996e-01,2.73949e-01,-3.91989e-01,
-4.00817e-02,4.77353e-03,-5.58909e-02,9.81445e-03,3.25054e-02,-3.61895e-02,-3.75000e-02,2.10428e-02,-3.52858e-02,-3.31201e-02,2.52280e-02,-4.28579e-03,-1.82636e-02,-4.43367e-03,-5.14087e-02,-2.24155e-02,-2.66137e-02,1.92922e-02,-1.11311e-02,1.38744e-02,2.91001e-02,3.97849e-02,-2.38521e-02,-2.80815e-02,-1.55854e-02,-4.51291e-02,1.66728e-03,-8.03008e-03,1.73299e-02,-3.07624e-02,-4.98884e-02,-4.19747e-02,3.62958e-02,3.03603e-02,-3.00523e-02,-4.46619e-02,2.02889e-02,-1.91573e-02,4.19318e-03,-3.65117e-02,-2.71020e-02,-3.52805e-02,-1.10889e-02,-2.32927e-02,-5.51926e-02,
1.71154e-01,5.88868e-01,9.16073e-02,-1.08943e-01,-3.50351e-01,8.30875e-02,5.82008e-01,3.17644e-01,-2.76418e-01,2.37369e-01,3.87103e-01,-7.24790e-02,-1.51436e-01,-6.71658e-01,-1.65313e-01,1.05874e-01,3.00220e-01,1.44534e+00,-5.93486e-01,-5.74008e+00,3.00087e-01,5.39517e-02,1.52046e-01,-2.13804e+00,5.17673e-01,-3.73012e-01,3.61622e-02,3.59610e-01,1.15503e-01,3.57336e-02,-1.84886e-01,1.07739e-02,4.44049e-01,-7.21917e-02,1.07309e-01,-7.11135e-01,1.60151e+00,1.65245e-02,8.54705e-02,1.07205e+00,-8.20213e-02,7.07963e-02,4.38030e-02,3.83909e-02,-2.12704e-01,
6.79139e-01,3.85963e-01,-2.16124e-01,4.60161e-01,1.80175e-01,-2.01693e-01,1.47268e-01,3.94677e-01,1.25709e-01,-3.71118e-01,1.95837e-01,-1.07692e+00,6.00738e-01,-1.49442e-01,-4.46382e+00,5.26420e-02,2.48207e-01,9.31662e-01,-2.28017e-02,2.85892e-01,-1.14610e-01,4.52909e-02,-2.94252e-01,1.39879e+01,-5.42913e-01,4.84978e-01,2.75684e-02,-4.26574e-02,-1.22242e+00,-4.15915e-01,-1.81008e-01,2.04813e-02,-8.28218e-02,2.28016e-01,1.74058e+00,3.64025e-01,-3.05311e-01,1.11053e-01,2.62557e+00,3.51982e-01,-1.04067e-01,6.54533e-02,3.72912e-01,3.29888e-02,-2.47835e-01,
2.65888e-01,-3.26692e-01,-2.81385e-01,-5.60584e-01,-9.90811e-01,-2.52061e-01,-6.42140e-01,6.37248e-01,6.81724e-02,8.99366e-01,-8.26462e-01,1.21390e-02,-2.76329e-01,3.27880e-04,3.41764e-01,-3.70817e-01,1.17030e+00,-1.99138e+00,-7.57346e-01,5.64151e-01,8.89324e-01,5.71597e-02,-4.55608e-01,1.12539e+00,-4.04435e-01,1.42570e-01,2.33683e-01,-3.96673e-01,-2.66007e-01,-2.25776e-01,-4.69240e-01,1.00478e-01,1.46603e-02,5.98223e-02,4.16990e-02,7.40255e-02,7.35363e-02,3.18625e-01,7.87415e-02,-4.27240e-01,-1.38982e-01,8.44194e-01,-5.50709e-02,6.44641e-01,-7.79030e-01,
3.76017e-01,6.09991e-01,5.26100e-01,-2.35028e-01,4.58940e-01,-3.11546e-01,8.35279e-01,-1.28223e-01,4.59955e-01,-6.35061e-01,1.93141e-01,2.90507e-01,6.15188e-01,-7.98846e-01,2.16583e-01,5.07261e-01,3.11396e-01,1.36197e+00,-3.65541e-01,1.86078e-01,2.10378e-01,7.51509e-02,-8.52580e-01,3.44317e-01,-3.19396e-01,-4.21922e-01,1.04441e-01,3.61829e-01,3.49214e-01,2.26888e-01,-1.57127e-01,1.98734e-01,9.53390e-02,2.63079e-01,-2.66637e-01,-5.25677e-03,8.09542e-01,3.29096e-01,-3.20163e-01,5.69047e-01,-5.57224e-01,-4.71342e-01,2.34637e-01,1.01032e-02,2.18918e-01,
-2.07903e-02,1.94311e-01,-1.15926e-02,6.80698e-01,-1.05968e-02,6.06022e-01,4.73064e-01,6.57643e-02,2.24457e-01,-4.82610e-01,5.04019e-02,7.41587e-01,3.68024e-01,5.11742e-01,-4.67919e-01,2.07231e-01,-7.73358e-01,-6.73296e-01,4.23415e-01,3.72692e-01,-7.83930e-01,2.45657e-01,-1.13833e+00,3.56875e+00,3.41037e+00,1.51078e-01,4.25501e-02,-2.68185e-01,-6.47252e-01,2.89338e-02,7.83114e-01,-2.29669e-01,4.87003e-01,5.60448e-01,3.63288e-01,-5.21057e-03,-1.47466e-01,7.26870e-02,3.62888e-01,-2.29716e-01,-1.28060e-02,-2.63244e-01,-6.78683e-02,-1.03920e+00,4.47106e-01,
-6.16225e-02,1.32211e-01,-2.73270e-01,-9.81429e-03,1.46527e-01,1.73989e-01,2.55005e-01,4.61353e-01,-2.98376e-01,4.46971e-01,-3.55638e-02,6.76900e-01,-1.48742e-01,-3.31103e-01,-3.85728e-02,-5.11656e-01,1.59018e-01,-4.93696e-01,-3.24472e-01,3.23572e-01,5.04117e-01,2.19602e-01,4.43587e-01,4.65073e+00,2.72436e-01,-3.42569e-01,4.16791e-02,-2.30258e-01,3.70694e-01,-2.54047e-01,-9.63636e-02,-2.72495e-03,3.85729e-01,7.68852e-03,2.78058e-01,-1.04516e-01,-9.42723e-02,1.59767e-01,2.38500e-01,7.21293e-02,-3.10296e-02,2.27965e-01,-3.81964e-01,8.05895e-02,2.91591e-01,
2.06465e-02,3.42533e-02,-2.99550e-02,-2.45556e-02,-4.09581e-02,7.79153e-03,-3.09037e-02,-2.84510e-02,-5.13312e-02,1.42416e-02,2.26157e-02,2.04463e-02,-1.27128e-02,1.42020e-02,-1.95889e-02,-9.28136e-03,4.05589e-02,-1.97327e-02,-3.09589e-02,3.00854e-02,2.38315e-02,-2.01894e-02,-1.96415e-02,-3.17785e-02,-5.83249e-02,-2.40485e-02,-1.67164e-02,-1.16495e-02,1.67326e-03,-5.47770e-02,-4.64928e-02,3.39820e-02,-4.29741e-02,-1.33653e-02,-6.07262e-02,-2.74170e-02,-8.78870e-04,-1.97605e-02,-2.05855e-02,3.65938e-02,-4.83820e-02,-2.42454e-02,-3.54083e-02,1.22821e-02,-5.45381e-02,
2.16843e-01,3.59056e-01,1.26759e-01,-1.37397e-01,-2.58123e-01,1.40618e-03,1.09115e-01,4.16935e-01,-3.26912e-01,4.17994e-01,-6.11209e-02,-8.75484e+00,5.24511e-01,-2.24136e-02,-3.96286e-02,-5.64033e-01,3.31100e-01,1.20929e-02,4.84670e-02,-8.78195e+00,1.14148e-01,-1.55193e-01,2.52729e-01,-1.76873e+00,2.18568e-01,-4.66473e-01,-1.24051e-01,4.63957e-02,-1.84613e-01,2.25064e-01,-1.04819e-01,1.53070e-02,4.99098e-01,2.36850e-02,-3.10066e-01,9.89005e-02,7.95550e-01,-3.54887e-01,-3.14246e-01,-1.31923e-01,-4.29564e-01,3.65583e-01,-1.25094e-01,3.22946e-02,5.80958e-01,
-7.08880e-02,3.39769e-01,-6.03035e-01,-7.93856e-01,-3.72348e-01,-1.25259e+00,2.26965e-01,-3.43863e-02,-7.78506e-02,2.16788e-01,1.20401e-01,-6.01023e-02,-5.63812e-02,-9.34805e-01,-3.20244e-01,-1.00866e+00,6.63964e-01,1.09765e+00,-8.83480e-01,2.06942e-01,2.23706e+00,7.88168e-02,1.48647e+00,-1.63634e+00,1.18451e-01,4.70124e-01,-2.46021e-01,-4.12656e-01,1.21290e-01,-5.26023e+00,3.45294e-02,1.26011e-02,-1.39579e+00,-2.42254e-01,1.63627e-01,-1.30804e-01,7.26489e-02,9.02897e-02,2.03194e-01,8.58334e-01,-5.59773e-01,8.18655e-02,-8.61019e-01,-3.36467e-01,-4.19842e-01,
-1.85154e-01,4.64877e-01,-3.16338e-01,-1.62529e-01,7.28034e-01,1.31205e-01,5.91081e-02,-1.35139e-01,-2.56788e-01,3.35129e-01,7.97209e-01,-1.53031e-01,-4.25290e-01,3.15660e-01,2.96874e-02,1.98316e-02,-4.58575e-02,3.88530e-01,5.06136e-01,2.49385e-01,-3.95422e-01,1.42406e-01,3.18162e-01,9.76402e-01,-1.08673e+00,3.57241e-01,-6.07579e-02,1.50826e-01,9.74169e-02,3.64754e-01,-6.22128e-01,-1.13008e-02,1.57133e-01,-3.45286e-01,2.04587e-01,7.33109e-01,2.87901e-01,1.65679e-01,-1.83804e-02,1.56502e-01,-1.48873e-01,1.99505e-01,-9.59767e-02,2.03661e-01,-1.02792e-01,
-6.31432e-02,-3.43676e-02,-2.22198e-02,-3.57397e-02,-5.62205e-02,-2.56090e-02,-3.22304e-02,-5.13836e-02,-5.65676e-02,2.88551e-02,-3.58068e-02,1.35881e-02,-6.18525e-02,1.00712e-02,4.28392e-02,-2.91161e-02,-1.18625e-02,3.41701e-02,-5.02786e-02,-5.04987e-02,-1.30093e-02,-1.39974e-02,2.63288e-02,4.49734e-02,-3.35205e-02,-4.87153e-02,-5.37039e-05,4.67647e-03,5.93437e-04,-1.86328e-03,1.32076e-02,-3.33348e-02,3.66594e-03,-4.87035e-02,-3.83848e-02,-6.99587e-02,-4.20586e-03,6.11039e-03,-3.30030e-02,-3.03256e-02,-3.25487e-02,3.44944e-02,5.21466e-03,-3.63643e-02,-5.22487e-02,
3.03094e-02,6.57711e-01,1.30974e-01,-1.05803e-01,5.00913e-01,-1.59826e-01,-6.12997e-02,-8.02018e-02,5.23190e-01,3.00820e-01,2.66680e-01,-1.27900e-02,7.14097e-02,2.06685e-01,-7.39019e-02,6.24846e-01,2.55119e-01,3.80601e-01,2.90639e-01,-7.43029e-01,-3.15282e-01,2.00424e-01,-7.65296e-01,5.75376e-01,-4.14525e-01,7.54207e-01,-1.36763e-01,1.64889e-01,-1.06411e-02,-4.82335e-01,4.37650e-01,7.38999e-02,3.63117e-01,1.26979e-01,-6.18719e-02,-3.28396e-01,9.88294e-02,5.97776e-02,-6.29926e-02,-2.96277e-01,1.84972e-01,-3.90748e-02,5.36299e-02,-1.13296e-01,1.25749e-01,
2.12898e-01,5.95449e-02,-1.44551e-01,5.79856e-01,1.11910e-01,-2.85348e-01,5.37074e-02,3.00472e-01,4.02902e-02,7.81327e-02,-6.55341e-02,1.48001e-01,1.13211e-01,8.26072e-03,-1.64259e-01,5.98542e-02,1.42936e-01,1.46463e+00,1.96679e-01,-5.43646e-01,-2.02736e-01,1.20187e-01,1.42454e-01,3.34392e+00,5.54427e-01,5.56079e-01,-1.46363e-01,-1.19183e-02,6.07626e-01,2.27494e-01,-4.29119e-02,-1.58879e-03,1.56016e-01,-1.07558e-01,-1.17793e-01,-2.97302e-02,5.94938e-02,1.78388e-01,-1.26434e-01,5.09838e-01,9.06779e-02,9.09033e-02,1.10189e-01,-3.77942e-01,-3.35424e-01,
-3.38899e-02,-2.27887e-02,-7.96267e-02,-7.40168e-03,-3.82120e-02,-3.42794e-02,-3.34396e-02,-2.14126e-02,7.29929e-03,-3.81624e-02,2.62351e-02,3.61479e-02,2.08034e-02,-5.04596e-02,3.21004e-02,-9.29650e-03,-2.12280e-02,4.61434e-02,1.27508e-02,3.63584e-02,-1.87078e-02,1.59499e-02,1.54199e-02,-4.28417e-02,-5.61338e-02,-3.64155e-02,2.21796e-02,-2.96906e-02,-5.74966e-02,-2.79677e-02,-8.90491e-03,-2.99164e-02,1.07815e-02,-5.46770e-02,5.54265e-03,-6.86311e-02,-1.87615e-02,-3.67142e-02,-1.19882e-02,-4.08478e-02,-1.91993e-02,3.14851e-02,-3.31323e-02,-3.69413e-02,-1.59975e-02,
-1.55117e-01,7.56340e-02,-9.11318e-01,-7.17715e-01,-3.68627e-01,3.74972e-01,3.65526e-01,-3.35229e-01,-3.44385e-02,3.03459e-01,-1.50537e-01,4.50142e-01,3.20293e-01,7.09579e-03,-1.30465e-01,-9.97087e-02,-1.52970e+00,-2.83464e-01,-7.12861e-01,-1.14024e+00,4.15479e-01,1.34744e-01,-7.40382e-02,-1.07795e+00,1.96785e-01,3.71780e-01,2.41688e-01,-1.66179e-01,2.25158e-01,-5.21328e-03,-5.40446e-01,1.40464e-02,1.05670e+00,-5.08741e-02,1.54636e-01,6.13126e-01,1.98659e-01,2.07576e-01,1.16265e-01,-3.64064e-01,-3.59509e-01,3.66990e-01,2.88486e-01,3.53484e-02,1.81110e-01,
1.19308e-01,-5.70786e-02,2.27746e-01,-3.12062e-01,-8.91726e-01,-2.58851e-02,-1.28874e+00,-1.07998e-01,-5.41207e-01,2.19407e-01,-5.52871e-01,-1.91402e-01,3.28163e-02,-4.55167e-01,6.41174e-02,-5.58885e-01,-1.76746e-01,-7.20945e-01,5.69630e-01,2.00960e-01,7.30060e-01,1.62811e-01,4.40779e-01,-1.36135e-01,-5.14165e-01,-2.40495e-01,-1.01661e-01,-2.92869e-01,-5.67815e-02,2.73318e-01,-7.91095e-01,4.39902e-02,-4.53115e-01,1.00930e-03,1.55261e-02,1.22149e-02,6.16802e-02,2.19869e-01,8.94478e-02,-2.56535e-01,-2.31856e-02,2.73483e-01,2.26975e-02,5.53568e-01,3.91452e-01,
6.11339e-01,-2.51695e-01,-1.96483e-01,-4.88269e-01,-3.55835e-01,5.17936e-01,-2.75665e-01,5.95793e-01,1.72770e-01,-3.01564e-01,-6.04254e-01,-1.26464e+00,-1.31763e+00,-5.54905e-02,1.33950e+00,1.49820e-01,1.15442e-01,7.39236e-01,4.60270e-02,3.95775e-01,-4.88553e-01,-8.08659e-02,1.29915e-01,1.26001e+00,-1.94357e+00,1.24325e-01,6.81365e-02,-1.20511e-01,-1.79367e+00,-9.14394e-01,3.70719e-02,5.72642e-03,8.75402e-01,2.62148e-01,6.55704e-01,1.29827e-01,-1.37726e-01,1.35260e-02,8.87737e-01,-4.05542e-01,-1.48704e-03,-4.69567e-01,7.94762e-01,1.98250e-01,-1.65242e-01,
3.36301e-01,-7.06673e-02,-5.11895e-02,5.71811e-02,4.28322e-02,4.73129e-02,-3.51589e-01,-1.39691e-01,4.80147e-02,-2.91774e-03,2.75673e-02,-1.20672e-01,-7.33519e-01,7.11505e-01,-2.15328e-01,-1.88629e-01,-3.62675e-01,4.32949e-01,1.46485e-01,3.62398e-01,-1.07583e-01,1.56350e-01,-5.95215e-02,1.65174e-01,8.28187e-01,-3.46557e-01,-2.58232e-01,-3.61443e-01,-3.58946e-02,4.60577e-01,-2.88779e-02,-2.81816e-02,-6.40068e-01,-3.56910e-01,5.01088e-02,-7.18765e-01,4.59337e-01,-7.32064e-03,2.56052e-01,-5.72238e-01,-2.23747e-01,9.39894e-02,1.11420e-01,9.38485e-03,3.22580e-01,
7.78150e-02,-4.41790e-02,-2.15718e-01,4.41040e-01,-2.11816e-01,-1.96717e-02,7.89601e-02,-1.19245e-01,-2.20476e-01,8.19878e-01,6.56458e-01,7.27625e-02,-2.96142e-01,3.92812e-01,1.65854e-02,-5.22637e-01,-5.35791e-02,1.95664e+00,-2.46232e-01,1.34707e+00,-1.44778e-01,7.54827e-02,1.37918e-01,2.27457e-02,4.10278e-01,-3.61352e-01,1.62758e-01,-8.83493e-01,-7.97078e-02,-4.96721e-01,-1.23308e+00,-3.87787e-02,3.47440e-01,3.60923e-01,8.92231e-03,-3.16393e-01,1.97839e-01,4.78745e-02,-4.84925e-02,8.19159e-01,5.45729e-01,4.62639e-01,4.43372e-01,6.10113e-01,1.16892e-01,
5.49411e-04,-8.47441e-03,3.27208e-02,-5.77914e-02,-2.03886e-02,-1.14997e-02,5.41265e-03,3.53623e-02,-6.66244e-04,1.58415e-02,-5.32134e-02,-1.11605e-02,2.55753e-02,-4.90620e-02,-2.79483e-02,-3.75472e-02,-7.09037e-04,1.45391e-02,-3.98079e-02,-4.74515e-02,-2.69943e-02,3.73433e-02,-3.01760e-02,-4.25547e-02,-8.60580e-03,-1.86910e-02,-4.34169e-03,2.78723e-02,-3.54952e-02,-1.64775e-02,6.67340e-03,-1.93355e-03,-2.54969e-02,-5.59349e-02,-4.61623e-02,-6.51212e-03,-2.13529e-02,-3.33692e-02,3.45966e-02,-5.90498e-02,1.67649e-02,-1.42004e-02,2.12329e-02,-4.98590e-02,3.22039e-02,
1.06940e-01,2.19592e-01,4.87872e-01,4.30694e-02,9.53170e-03,-7.61882e-02,3.87517e-02,-1.96817e-01,-1.36309e-01,-2.88781e-01,5.60895e-02,4.68871e-02,-2.17280e-01,6.52017e-01,-8.98381e-03,3.12918e-01,-1.25097e-01,-1.18733e-01,-3.61629e-01,-1.85654e+00,1.32795e-01,1.47326e-01,-2.90129e-01,1.96141e-01,2.30723e-01,2.31175e-02,-8.85209e-02,3.41171e-01,3.91913e-02,-6.33438e-01,4.47969e-01,3.83260e-02,-3.39028e-01,-3.84046e-01,2.23798e-02,1.43349e-01,-2.76865e-01,2.71304e-01,3.33432e-02,-1.08971e+00,-8.59240e-02,-3.46325e-01,-4.93740e-01,-3.13191e-01,3.07440e-01,
2.97132e-01,-1.45553e-01,-7.23549e-01,-2.36940e-01,-1.14866e+00,1.12537e-01,4.64873e-01,5.75937e-02,-3.36471e-01,1.39213e-01,6.57625e-01,-1.23586e-03,-1.68499e-01,1.95668e-01,9.10514e-02,1.46415e-01,2.29039e-01,-1.02556e+00,-4.40302e-01,6.40117e-01,-3.62300e-01,4.79559e-03,-9.69963e-02,-1.80051e+00,-1.38003e-01,-7.78400e-01,2.38759e-01,2.22585e-01,-8.46379e-02,1.36284e-01,-8.64359e-01,8.51556e-02,1.09571e-01,-1.56681e-01,-6.07175e-02,-6.35942e-01,-4.76133e-01,3.24513e-02,5.86338e-02,2.14720e-01,-1.52522e-01,-3.60487e-01,4.72094e-02,2.49908e-01,2.76294e-01,
3.99793e-01,2.99978e-01,4.53349e-01,-1.26844e-01,-6.90272e-02,-5.01859e-02,-1.36402e-01,2.14673e-01,-1.30983e+00,1.99221e-01,4.97680e-01,-1.42876e-01,-8.18876e-02,-3.77748e-01,-2.07429e-01,-5.69756e-02,-4.33822e-01,-1.85609e+00,-2.65210e-01,-3.79791e-02,-1.44012e-01,2.27022e-01,2.32461e-01,-3.18582e+00,-3.52363e-02,-9.60105e-01,1.12941e-01,8.36646e-02,4.49928e-02,-1.97845e-01,5.87839e-01,2.26757e-01,6.06650e-02,1.39715e-01,2.18799e-01,-1.06917e+00,-1.29278e+00,1.54162e-01,2.49022e-01,-2.30220e-03,1.05015e-01,9.88966e-02,-2.37277e-01,-4.88432e-01,-1.38866e-01,
3.92856e-01,-3.47294e-01,-1.62361e-01,2.59227e-01,-1.03748e-01,-1.95522e-01,7.51040e-02,4.26843e-01,4.73436e-01,4.46718e-01,-2.98120e-01,-1.17005e+00,-7.49126e-01,8.70382e-01,2.41054e-01,-1.04720e-01,-6.89021e-02,-8.13940e-01,-7.17435e-02,4.97421e-01,-3.86987e-01,4.01983e-02,-4.25835e-01,-4.46392e-01,9.81424e-01,1.03827e-01,1.61908e-02,-2.70842e-01,-5.62598e-01,-5.88276e-01,-3.40665e-01,2.15856e-03,-4.41549e-01,2.79996e-01,6.20551e-01,5.77873e-02,-4.13211e-01,-9.37157e-02,9.72245e-01,-5.45418e-01,-1.22826e-02,5.43703e-02,2.04784e-01,-3.51046e-02,-2.97949e-01,
-5.41935e-02,2.00197e-01,-5.88822e-01,-2.61846e-01,-9.83826e-03,6.68644e-01,7.09130e-01,-2.40118e-01,-9.61840e-02,-2.10171e-01,1.26628e-01,1.43566e-01,-7.72478e-01,2.90360e-01,5.10084e-01,1.61994e-02,-9.79173e-02,7.59371e-02,1.72488e-02,-1.39364e-01,4.53395e-02,-2.44941e-01,4.14391e-01,-8.53102e-01,1.06201e+00,-1.34816e-01,-2.41741e-01,1.43455e-01,-6.11417e-01,1.52633e-01,3.74033e-01,3.66983e-02,-8.11122e-01,-3.96107e-01,2.69984e-01,-1.28531e-01,1.34944e-01,-2.97307e-01,4.00475e-01,8.54712e-01,3.66328e-01,-2.77128e-01,6.18220e-03,-1.71418e-01,-4.10840e-01,
-1.12077e-01,2.74905e-01,4.24950e-02,-1.43807e-01,2.04743e-02,-3.60508e-01,1.17954e-01,2.79012e-01,-2.23588e-01,-2.16386e-01,-8.13788e-02,-7.53968e-02,2.94538e-03,1.10062e+00,-4.52578e-01,8.57820e-01,1.60500e-01,-1.35599e+00,5.07068e-02,-1.28655e+00,2.13844e-01,1.60405e-01,-1.48729e-01,4.35246e-02,-8.69708e-01,-5.90932e-01,3.60742e-02,4.79121e-01,3.60274e-01,3.98169e-01,-9.85768e-01,7.87758e-02,1.03789e-01,1.29789e-01,2.22810e-01,-5.46984e-01,-2.30822e-01,8.90672e-02,2.09353e-01,-9.71589e-02,6.65299e-02,4.61308e-02,-1.02697e+00,-1.87215e-01,3.11179e-01,
2.12655e-01,-8.23281e-02,6.95065e-03,-2.82725e-02,-2.29083e-01,-1.48378e-01,-1.68844e-01,-6.10461e-02,-6.62690e-01,6.64729e-02,-9.92777e-01,-4.30532e-02,-3.72202e-01,3.60909e-03,5.47873e-02,-3.22943e-01,-2.09248e-01,-1.45194e+00,-4.69995e-01,-2.23625e-01,2.37247e-01,1.93051e-01,-5.72219e-01,1.46001e+00,6.41244e-01,-6.65474e-01,1.60590e-01,3.65604e-01,-1.30682e-02,-2.40843e-02,5.09514e-01,1.12922e-01,5.92948e-01,-5.06643e-01,3.48922e-03,-1.91437e-01,-3.10928e-01,2.56082e-01,3.61239e-02,-4.79513e-01,5.39462e-01,2.16540e-02,5.68546e-01,1.61648e-01,3.37454e-01,
-2.23378e-02,-1.11910e-01,2.60075e-01,1.71339e-01,-1.13115e-01,2.72001e-01,-1.10960e+00,-6.81987e-02,-7.24529e-01,-1.01204e-01,5.00518e-01,4.43655e-01,2.33962e-01,-5.87869e-01,-6.77854e-01,-3.59613e-01,-7.88612e-01,8.12337e-01,-1.94468e-01,-1.53275e+00,-6.08437e-01,-3.04552e-02,1.31938e-02,1.25841e+00,-4.03884e+00,-1.95494e-01,6.23543e-02,5.46715e-01,5.29570e-01,-3.13886e-01,3.95160e-01,-5.24013e-03,7.63351e-02,4.41326e-02,2.52803e-01,1.95390e-01,4.18091e-01,-2.92476e-02,2.50984e-01,-3.58999e-01,-2.58309e-01,-1.75989e-01,6.10129e-01,1.46355e-01,-8.95126e-01,
2.61378e-01,3.55850e-01,2.31163e-01,-1.30693e-01,-1.00781e-01,-6.27970e-03,-8.61751e-02,5.39869e-01,1.21252e-01,3.27821e-01,-3.66030e-01,-1.73231e-01,2.25837e-01,5.82398e-01,-9.89817e-02,1.68415e-01,-1.11219e-01,2.81508e-01,1.23835e-01,-1.17451e+01,-1.68101e-01,2.77735e-02,-4.15078e-01,2.15632e+00,1.31532e-01,2.16188e-01,6.09134e-02,-2.00668e-01,2.75731e-01,2.73165e-02,-2.73584e-01,-1.00242e-02,-4.67940e-01,-1.69975e-02,-3.70690e-02,3.55143e-01,-1.46423e-02,1.58093e-01,7.58500e-03,-7.47404e-02,1.18019e-01,1.54625e-01,-5.18212e-02,-5.10511e-02,-3.03000e-02,
-1.15247e-01,-1.16875e-01,-9.35718e-02,6.59904e-02,-9.42815e-02,-1.20728e-01,6.39661e-02,-1.68514e-02,-8.03675e-02,1.12941e-02,-2.65103e-02,-5.62735e-02,-1.12276e-01,6.14389e-02,5.79247e-02,-4.30801e-02,-3.03000e-02,-3.37481e-02,-5.73845e-02,-7.67054e-02,-9.06154e-02,-6.97654e-02,-2.53755e-02,8.71569e-02,-2.17932e-02,-4.58026e-02,-1.94971e-02,-1.80848e-02,2.49679e-02,-5.92148e-02,-1.49522e-02,-1.29567e-02,2.99076e-02,-5.81476e-02,-6.39040e-02,-7.44848e-03,3.40697e-02,-1.38161e-01,-7.92154e-02,-1.33157e-02,-8.88969e-03,-1.42867e-02,-3.44454e-02,-2.59497e-02,-2.48640e-02,
-4.16080e-02,-9.49371e-03,6.44076e-03,-2.31699e-02,1.48689e-02,-4.27408e-02,-6.17534e-02,-6.37232e-02,1.41657e-02,-2.33365e-02,-1.29621e-02,7.07709e-03,-1.52811e-02,-5.71722e-02,-1.86822e-02,-1.64206e-02,-2.16517e-02,1.74400e-02,-1.93415e-02,2.21023e-02,-1.19835e-02,-1.71899e-02,2.39741e-02,2.55463e-02,-2.19165e-02,4.62821e-03,1.51135e-02,2.09284e-02,-1.31279e-02,-3.93627e-02,9.20250e-03,-5.18869e-02,-5.89765e-02,-3.32629e-02,3.33517e-03,-4.31420e-02,-1.31517e-02,-4.99661e-02,-5.25363e-02,-4.90261e-02,1.97885e-02,-2.35829e-02,2.04849e-02,-4.14800e-02,-2.80030e-02,
4.40628e-01,-3.72105e-01,-5.35391e-02,8.35065e-02,-9.00442e-01,-4.83748e-01,-5.69633e-01,3.68491e-01,-1.45400e+00,4.92236e-01,-3.54800e-01,2.60916e-01,-4.65726e-01,-4.09539e-01,-2.47368e-01,-4.28616e-01,9.08800e-01,-2.54509e+00,-2.14242e-01,-1.06518e+00,1.91135e-01,1.36056e-01,7.29753e-02,1.70991e+00,-3.55108e-03,7.06812e-01,6.04678e-02,-5.64477e-01,4.88072e-01,-3.96271e-01,-1.18845e+00,6.09613e-02,5.19966e-01,2.08556e-01,1.14388e-01,3.88236e-01,-1.03348e+00,3.71382e-01,1.58898e-01,-4.23106e-01,3.53516e-01,4.86107e-01,4.59634e-01,2.06754e-01,-3.16268e-03,
-9.32812e-02,1.93631e-01,-2.15632e+00,3.42616e-01,-9.19641e-01,2.03132e-02,3.85538e-01,1.51646e-01,-4.97086e-01,2.44557e-01,1.30127e-01,-7.55961e-02,-2.08505e-01,-1.01765e+00,-8.45794e-02,-6.47708e-01,-3.72937e-01,3.04635e-01,-1.09072e+00,-7.71210e-01,4.59020e-01,1.04919e-01,9.18190e-01,-1.42419e+00,-5.37367e-01,4.33099e-01,5.20287e-02,-2.48608e-01,6.99260e-02,-2.38789e-01,-2.42242e-01,1.96697e-02,9.30036e-01,5.24760e-02,4.64784e-02,2.21620e-01,-6.59538e-02,1.53441e-01,7.98753e-02,5.52217e-01,-1.36056e+00,3.52251e-01,-7.33457e-01,2.22557e-02,7.89456e-01,
2.69812e-01,2.81862e-02,-5.07835e-01,-5.01242e-01,-1.51472e-01,-5.06287e-02,-3.68597e-02,2.37081e-01,2.46078e-01,4.61402e-01,5.17731e-01,-7.27083e-02,-1.08479e-01,-7.40900e-01,2.37115e-01,2.81088e-01,-4.65115e-01,2.16136e-03,-3.07414e-01,6.07609e-02,-4.44873e-02,3.32218e-01,-1.05195e+00,1.65785e+00,-3.82304e-01,-3.38084e-01,1.64118e-01,-1.62143e-01,-4.37677e-02,1.34299e+00,-3.20147e+00,-1.27747e-02,-2.25715e-01,-2.78608e-01,1.33343e-01,-1.15514e-01,-8.40097e-02,2.80864e-01,3.86692e-02,2.58892e-01,5.55865e-01,-5.31532e-02,-7.83772e-01,-1.41995e-02,-3.56449e-01,
-3.03585e-01,7.72861e-02,-2.68677e-01,4.23184e-01,-1.62991e-03,-2.12784e-01,-1.53954e-01,-4.22463e-01,1.84311e-01,-5.05142e-01,-3.09250e-01,6.29341e-03,-1.76693e-01,-2.81308e+00,-1.34402e-01,2.07598e-02,5.53040e-01,4.42963e-01,5.78040e-03,1.54040e-02,4.01700e-01,2.46631e-01,-2.24632e-01,2.03161e+00,1.06628e+00,1.68213e-01,-1.73426e-01,-3.61432e-01,4.48740e-02,-1.15671e+00,-3.38122e+00,7.16563e-02,7.49393e-01,-1.21299e-02,2.92130e-02,-1.91371e-01,-4.67610e-01,9.98213e-02,5.76497e-02,7.08323e-01,3.39627e-03,-1.36369e-01,-3.75180e-01,9.50559e-02,-4.58813e-01,
-2.21008e-01,1.53959e-01,2.41347e-02,2.82649e-01,-4.11488e-02,2.19937e-01,4.24984e-01,-7.53878e-01,1.79209e-01,-1.04546e+00,5.14552e-02,-1.22969e-01,-1.38938e-01,1.56735e+00,-1.25672e-01,1.63467e-02,-6.08652e-01,6.20018e-01,3.24075e-02,9.50073e-02,-2.87153e-01,1.40127e-01,-6.01754e-01,-3.09090e-01,3.59171e-01,1.99688e-01,8.73957e-02,-3.49508e-02,1.10452e-01,2.20050e-01,-1.10794e-01,3.63534e-02,3.80030e-01,-2.98179e-01,2.85161e-02,-1.22542e-01,-3.33506e-01,1.06862e-01,8.13186e-02,1.00371e+00,3.25145e-01,-5.11240e-01,-5.63648e-01,-3.97867e-01,5.32415e-01,
2.27332e-01,-1.03639e-02,-2.80987e-01,-1.43541e-01,-1.52196e-01,2.83059e-01,3.57057e-01,1.99090e-01,-4.41351e-01,-4.10989e-01,-1.15860e-01,-8.76673e-02,2.51436e-01,-9.36482e-02,5.91411e-02,-2.30986e-01,-8.36340e-01,5.53390e-01,-3.58348e-01,-6.70327e-01,2.01285e-01,1.25619e-02,9.51570e-01,3.56738e+00,3.29422e-01,-1.86155e-01,1.17145e-01,4.30406e-01,1.02113e-01,2.96708e-01,-2.62789e-01,6.28303e-02,2.86140e-01,2.37795e-01,1.66116e-01,4.72526e-01,-3.10598e-01,-2.52772e-02,1.74292e-01,8.13886e-01,1.70774e-01,-2.31974e-02,2.37560e-01,1.28713e-01,3.36830e-01,
-2.28775e-01,3.24915e-01,-2.88206e-01,8.61000e-02,-4.77410e-01,-1.66861e-01,-3.30432e-01,-7.17327e-02,-9.90840e-01,-2.75187e-01,-3.46697e-01,-1.39586e-01,-3.86592e-01,4.92811e-01,-2.59327e-01,-1.88788e-02,-7.18465e-01,5.27409e-01,1.58231e-01,5.18891e-01,1.53450e-01,1.17022e-01,5.47188e-01,-5.06249e-01,5.23911e-01,-1.35931e-01,-1.16689e-01,6.54934e-02,1.45773e-01,4.81952e-01,-2.92737e-01,6.69424e-02,-2.01203e-01,-4.33811e-01,1.52078e-01,1.93418e-01,4.95399e-01,3.35670e-02,1.56368e-01,-2.36271e-01,1.35617e-01,-1.26149e-01,-1.49223e-02,3.12361e-02,-1.02843e-01,
1.74965e-02,-2.00228e-03,2.63312e-02,-2.01063e-02,-2.82260e-02,-4.31601e-02,1.02275e-02,1.06113e-03,-3.35506e-02,3.06406e-02,-9.31107e-03,3.03707e-02,-3.78133e-02,-4.42017e-02,-6.10603e-02,-3.75995e-02,-4.80811e-02,-1.90796e-02,-1.23315e-02,4.34361e-02,-2.47338e-02,-1.84745e-03,1.38849e-02,-2.13049e-02,-4.40533e-02,-4.84714e-02,-8.55368e-03,-2.08177e-02,-1.45889e-02,2.44072e-02,-5.38424e-02,1.37600e-02,4.16330e-02,-2.97269e-02,1.76750e-02,-3.68237e-02,3.96866e-02,2.55611e-02,-3.13427e-02,-2.75512e-02,1.09991e-02,-3.96725e-02,-3.03815e-02,1.00321e-02,-2.76969e-02,
6.07270e-02,-9.79011e-01,1.27346e-01,-3.84514e-01,3.49682e-01,-4.11567e-01,1.39116e-01,-2.26253e-01,-3.41384e-02,3.24417e-01,-1.54282e-02,8.41681e-02,1.70427e-01,6.65723e-01,1.39333e-01,8.92755e-02,3.14533e-01,-2.71634e-02,2.64750e-01,-1.19441e-01,-4.70508e-02,-6.98137e-02,1.67268e-01,-3.47129e-01,-3.86380e-02,-6.09195e-01,4.87561e-01,9.62319e-02,-1.15047e-01,-1.93362e-01,-1.82103e-01,1.34491e-02,7.49525e-01,-1.87068e-01,-1.21229e-01,-1.02160e-01,-7.32646e-01,2.56700e-01,-6.29199e-02,5.42456e-01,3.51459e-01,-7.13523e-02,-1.64091e-02,3.34849e-01,-5.00139e-03,
-2.57783e-02,-6.16561e-02,-7.00117e-02,-2.95482e-02,-5.23544e-02,1.72143e-02,-5.63586e-02,2.70477e-02,1.21830e-02,-9.65591e-03,-9.23645e-04,-2.58510e-02,-1.19513e-02,-6.54178e-02,-4.42948e-02,-4.71446e-02,-2.99245e-02,3.65841e-02,-3.86400e-02,-2.72605e-02,-5.42462e-02,6.94693e-03,8.28593e-04,-2.33246e-02,-1.38526e-02,8.16383e-03,1.76824e-02,2.94226e-02,2.43039e-02,-4.89503e-02,-7.37777e-02,1.44998e-02,-4.86512e-02,-4.73146e-02,-2.11214e-02,1.67899e-03,7.83052e-03,-7.13024e-02,-1.43346e-02,1.68278e-02,-2.72718e-02,-3.29449e-03,-4.83657e-02,2.24155e-02,9.87843e-03,
-4.77393e-02,
1.83266e-01,
-1.60185e-01,
-1.21532e-02,
-4.90688e-03,
3.30431e-01,
3.78251e-01,
1.05845e-01,
1.14492e-01,
-2.58287e-01,
-2.26690e-02,
2.03663e-01,
-1.66320e-01,
-3.60810e-01,
-1.80996e-02,
-6.94612e-02,
-1.59115e-01,
-3.25936e-02,
2.41460e-01,
1.58215e-01,
3.24989e-01,
1.34316e-01,
-3.66606e-01,
-8.19375e-03,
4.40170e-01,
1.98347e-01,
3.60777e-01,
2.88921e-01,
2.31111e-01,
-1.85242e-02,
5.12685e-01,
-1.58710e-01,
1.96566e-02,
-4.64844e-02,
-2.21003e-02,
1.75361e-01,
2.23206e-01,
1.39583e-01,
1.09838e-01,
1.05662e-01,
-1.62769e-01,
1.32679e-01,
-1.41965e-02,
1.51000e-01,
-1.58452e-02,
-1.19205e+00,6.79445e-02,-2.74743e-02,-4.37122e-02,4.48072e-01,5.65592e-01,2.71785e-01,-1.26760e-01,-4.83915e-01,-4.43798e-01,3.32524e-02,-1.05547e-01,-5.87391e-02,1.34544e-01,6.02957e-03,5.28374e-01,-1.18859e+00,1.00002e-02,3.59192e-03,2.57436e-01,8.34673e-01,4.58574e-01,-2.49236e-01,2.53167e-02,5.63333e-01,4.83943e-02,2.61198e-01,3.96001e-01,9.59731e-02,-2.49678e-01,3.25405e-01,-4.74113e-01,-3.86379e-01,-9.81800e-02,-5.12387e-02,-1.80893e-01,7.26315e-01,-1.60005e-01,1.77206e-01,5.06434e-01,3.50931e-01,-5.02367e-02,-2.64357e-02,-1.90768e-02,-3.55799e-02,
-5.93573e-01,-6.77489e-02,-1.27844e+00,3.62486e-03,2.37301e-01,-5.68172e-02,6.90303e-02,2.31743e-02,-4.00094e-02,-1.40690e+00,3.57512e-02,3.90142e-01,2.80289e-01,-7.23973e-02,-3.75792e-02,2.03242e-01,2.21288e-01,-5.12206e-02,-7.18730e-01,2.90145e-01,-9.76494e-02,6.82660e-01,-1.81643e-01,-3.63247e-02,2.04366e-01,-2.43988e-02,2.86252e-01,1.95408e-01,1.55759e-01,-9.13873e-02,-2.44639e-01,-6.11146e-02,-1.89251e-01,2.41754e-02,-2.10051e-03,7.80466e-02,-7.11608e-01,-5.07779e-02,-3.72766e-01,5.98952e-01,-2.67124e+00,2.73492e-01,-2.79560e-02,-1.99344e-01,2.34964e-02,
-6.00157e-02,1.88889e-01,1.71195e-01,2.12670e-02,-2.90016e-01,5.49264e-02,3.86025e-02,-2.72357e-01,-1.68645e-01,-5.97907e-01,6.10093e-03,-9.59470e-01,-7.40839e-02,5.47176e-01,-2.76184e-02,-3.36979e-01,5.52953e-01,1.45416e-02,2.35260e-01,-1.02389e-01,-1.45990e-01,-5.10949e-01,8.79961e-02,-3.96295e-02,-6.37892e-02,2.00634e-01,4.71112e-01,-1.12180e-01,1.16524e-01,-5.14821e-01,5.11081e-01,-6.79983e-01,6.72852e-01,4.17335e-02,-3.05807e-02,-4.57848e-01,4.40618e-01,2.39343e-01,1.72832e-01,-6.77469e-02,-1.25670e-01,4.68116e-01,6.09745e-02,-3.79989e-01,6.72872e-03,
-2.78092e-01,-4.32233e-02,-3.04368e-01,-3.45126e-02,6.95312e-01,-7.38318e-03,4.35783e-02,-4.75082e-01,3.84964e-02,6.67647e-01,4.98083e-02,-1.91923e+00,5.50043e-01,1.57772e-01,2.78089e-02,-9.80465e-02,6.54233e-02,6.21941e-03,9.66302e-02,1.14375e-01,-1.40253e-01,-2.20474e-01,7.00346e-02,2.64641e-02,4.48988e-01,-3.10278e-01,1.34070e-01,-3.88882e-02,7.15283e-02,4.43078e-01,-3.03417e-01,3.77350e-01,1.60208e+00,6.87992e-02,-1.94451e-03,3.13178e-01,4.63546e-01,-2.94042e-01,-1.16438e+00,-1.53233e+00,5.51913e-01,7.96988e-02,1.73770e-02,-9.33177e-02,-4.70363e-02,
2.23116e-01,-8.09828e-02,2.79582e-01,9.44922e-04,-1.83431e+00,-5.93521e-02,5.04483e-01,-6.84762e-02,-6.40189e-02,-2.51562e-01,-1.59225e-02,-1.14555e-01,1.82294e-01,-4.21108e-01,-3.32763e-02,-1.79859e+00,-1.49163e-01,-2.41849e-02,1.99162e-01,-3.07378e-01,1.14332e-01,-5.25047e-01,3.20514e-01,3.84467e-02,-2.06385e-01,-1.20097e+00,-2.84606e+00,-2.28916e-02,-4.56973e-01,4.86473e+00,2.19546e-02,-6.71146e-01,-1.66578e-01,4.36299e-02,-1.03285e-02,1.67947e-01,-3.20491e-01,4.45732e-01,3.88334e-01,-1.31978e+00,-4.44178e-01,2.54495e-01,2.59647e-02,6.86576e-02,6.80534e-02,
1.13829e-02,2.75972e-02,-6.34629e-03,2.39892e-02,-4.51904e-02,-3.34279e-02,1.05936e-02,-3.12030e-02,9.92471e-03,2.07367e-02,-2.31023e-02,-3.29182e-04,-1.40939e-02,-6.32429e-03,-1.91525e-02,-4.87845e-02,3.89594e-03,-3.57017e-02,3.43207e-04,-2.62941e-02,8.22470e-03,-1.52786e-02,1.28525e-02,-4.40713e-02,-2.70925e-02,-5.80835e-02,8.82623e-03,-5.83897e-02,2.31874e-02,2.81349e-04,-3.54553e-03,-4.51273e-02,-1.01317e-02,1.10841e-02,1.37523e-02,1.65502e-02,-4.91251e-02,2.99570e-03,-1.67255e-02,-4.55564e-02,-4.90727e-02,3.23115e-02,-3.75757e-02,-3.75783e-02,1.44532e-02,
8.87761e-02,-1.51001e-01,3.77692e-01,4.81461e-02,-3.32779e-01,-4.17682e-01,-5.23749e-01,4.06674e-01,-6.61501e-03,1.19506e-01,4.14101e-02,4.84201e-01,4.70265e-01,-3.15857e-02,-7.82072e-03,-7.28112e-01,-8.80922e-02,-5.35080e-02,-6.51142e-02,3.46081e-02,4.34042e-01,3.83228e-01,-7.86546e-01,1.33602e-02,-3.46822e-01,-5.84030e-02,3.48355e-01,2.16611e-01,6.10480e-01,3.32390e-01,3.86157e-01,4.30043e-03,4.03425e-01,-7.55526e-02,-1.32641e-02,6.99609e-03,-4.68434e-01,6.69435e-01,5.22001e-01,-1.85484e-01,-7.07486e-02,-6.21506e-01,-3.84402e-02,5.54185e-01,-8.06013e-04,
6.68421e-02,2.33007e-02,5.02536e-01,-3.09373e-02,3.10015e-01,8.28703e-02,-1.72735e-01,-1.00928e-01,-2.48005e-01,-4.89145e-01,4.27852e-02,-7.93922e-02,-5.40538e-02,1.46112e-02,-1.95110e-02,2.04648e-01,6.81608e-01,-1.58256e-02,-1.77201e-01,-9.05606e-01,1.23120e-01,-1.18598e+00,6.65494e-02,2.59381e-02,-1.10535e+00,5.64193e-02,-1.35721e-01,-1.20896e-01,-2.47211e-02,-5.77467e-02,-1.92517e+00,9.16317e-02,-5.68600e-01,2.86621e-03,-3.97255e-02,-4.69417e-01,-2.74154e-01,-4.04159e-01,-1.01916e-01,1.70044e-01,6.92166e-01,-1.88083e-01,-1.56667e-02,5.07646e-01,2.42897e-02,
-8.52170e-03,-8.52116e-03,1.46793e-03,-5.87001e-03,2.78311e-02,-4.07168e-02,-3.44287e-02,-4.36095e-02,-4.68094e-02,-2.42148e-02,7.32574e-03,-2.32084e-02,-3.06411e-03,-6.15773e-02,-3.44187e-02,-2.25036e-03,1.40042e-02,-1.52918e-02,3.17403e-02,-3.55734e-02,1.50400e-03,4.29663e-02,3.64157e-02,3.90460e-02,-3.96816e-02,1.93501e-02,-3.36416e-02,-2.88004e-02,-4.30995e-03,4.35238e-02,-1.73051e-03,1.37678e-02,-3.80109e-02,-4.50803e-02,3.01921e-02,3.69269e-02,-5.34717e-02,2.29778e-02,-1.04159e-02,-3.13928e-02,3.31750e-02,-2.80779e-02,-3.51797e-02,-2.54304e-02,-4.40450e-02,
-5.31599e-02,1.35716e-01,-9.73151e-02,6.66355e-03,2.73123e-01,1.84036e-01,9.61441e-02,-1.45689e-01,-4.14025e-01,-2.27120e-01,-3.92269e-02,2.49036e-02,-6.42712e-01,1.61727e-01,-1.29421e-02,2.59359e-01,3.93348e-01,8.09820e-02,1.44309e-02,-5.28522e-01,-9.98687e-02,-5.76152e-01,-1.00166e+00,-4.41122e-02,3.85364e-02,-3.92110e-01,1.42425e-01,-1.37079e-01,1.59995e-01,1.17685e-01,-4.18063e-01,-2.49287e-01,2.69131e-01,-1.04548e-01,3.04971e-02,2.04065e-03,-3.26729e-01,-3.52191e-01,3.69508e-01,1.51303e-01,4.22537e-01,-2.33458e-01,6.15991e-03,-4.80929e-02,7.83283e-03,
-3.53746e-01,4.41707e-01,-1.37071e-01,-4.73646e-02,-3.25784e-01,6.79060e-01,1.53178e-01,-7.91607e-02,-7.85925e-01,-1.98074e-02,-2.55943e-02,-4.00108e-03,1.13401e-01,-5.06622e-01,-3.98070e-02,-1.61023e+00,1.88656e-01,-1.02741e-02,1.15234e-01,-5.01856e-01,-2.20186e-01,6.75849e-01,-1.28596e-01,-3.85483e-02,-5.10528e-02,-6.52702e-01,1.27657e-02,2.06210e-01,-2.00719e-01,7.22828e-02,2.73214e-01,4.60136e-01,-5.26227e-01,-4.64137e-02,3.95700e-02,1.86903e-01,-8.12912e-02,-1.31342e-01,1.92717e-01,6.25367e-01,-5.80297e-02,1.01954e-01,-1.37140e-02,1.11842e-01,1.58482e-02,
3.92299e-02,-5.30862e-02,-9.97729e-03,-4.62229e-02,-3.79727e-02,-1.18398e-02,-2.52492e-02,-1.21807e-02,7.79842e-03,6.45264e-03,1.44721e-02,-2.76204e-02,4.83252e-02,-1.48413e-02,1.42539e-02,-4.10308e-02,1.02393e-02,-3.80566e-02,-4.79446e-02,-3.63604e-02,-1.81507e-02,-3.99549e-02,-3.84058e-02,-1.78734e-02,2.86824e-02,3.26658e-02,1.33086e-02,-4.51393e-02,3.02760e-02,3.12962e-03,-5.64057e-02,-4.95479e-02,7.17434e-03,3.91603e-02,7.14760e-03,-2.80554e-02,2.47177e-02,5.22126e-04,-1.22467e-03,-4.86329e-02,-1.22922e-02,-4.34931e-02,4.00286e-03,3.69170e-03,-4.65743e-02,
6.55770e-02,-3.20818e-01,-1.73293e-01,4.55683e-02,1.22088e+00,4.72285e-02,4.28108e-01,-3.22698e-01,-1.96547e-01,1.27143e-01,-4.77022e-02,-1.20452e+00,3.86969e-01,-1.80433e-01,3.59597e-02,2.27951e-01,1.39838e-01,6.00372e-02,2.66111e-01,3.23590e-01,-3.26185e-02,-1.32504e-01,-8.78428e-02,-3.27047e-02,8.52026e-01,3.28834e-01,-5.57454e-01,-2.01379e-01,5.05838e-02,2.58121e-01,5.05755e-01,-3.17826e-01,1.17499e+00,-4.83719e-03,2.57830e-02,-2.08367e-01,4.24111e-01,-7.43024e-02,1.29115e-01,-7.82839e-01,4.33017e-01,1.43151e-01,-8.11314e-03,5.71080e-02,1.34367e-02,
8.75889e-02,-6.65742e-02,-5.86872e-02,-8.10345e-03,1.70782e-02,-6.35800e-02,-6.06775e-02,-8.81529e-03,-1.79718e-02,-2.03971e-02,-1.99075e-02,5.37280e-02,-5.10593e-02,-3.14107e-02,1.09257e-02,-3.86829e-02,-3.57200e-02,1.75477e-02,-2.82461e-02,-3.05474e-02,-9.35113e-02,-6.54879e-02,-2.41248e-02,-3.67960e-02,3.45262e-02,-6.70612e-02,1.96648e-02,-5.57786e-02,-8.59606e-02,3.97398e-02,2.56363e-02,-1.28749e-02,-5.12999e-02,-3.36607e-03,-1.67012e-02,3.66927e-02,-3.20599e-02,3.03920e-02,-2.93054e-02,5.18521e-02,4.54684e-03,-3.47928e-02,-4.39771e-02,-1.00814e-02,-1.37070e-02,
-1.60341e-02,-7.11515e-02,-4.96286e-02,3.25099e-02,1.21373e-02,-1.40997e-02,1.08066e-02,4.33631e-03,1.19391e-02,2.13195e-02,-1.47782e-02,3.02080e-02,-4.96236e-02,-2.71098e-02,-4.44684e-02,-4.65006e-02,-2.88425e-02,-4.75544e-02,2.01000e-02,-5.06254e-05,-1.62229e-02,-7.07672e-02,-3.40414e-02,3.26824e-02,3.28210e-02,5.49198e-04,-3.24430e-02,-3.10165e-02,1.68476e-02,-4.08543e-02,-4.96941e-02,-3.12934e-02,-1.95140e-02,-2.42182e-02,5.36666e-03,1.90366e-02,-8.32493e-03,-2.54291e-02,-2.16112e-03,2.71596e-02,-1.33133e-02,-2.14239e-02,-3.24692e-02,8.93187e-03,-1.43696e-02,
-1.06775e-02,-1.40018e-01,2.51373e-01,-1.63019e-02,1.08086e-01,1.29668e-01,2.66097e-02,1.41005e-01,-2.42912e-03,-6.15770e-01,4.10715e-04,-4.78298e-01,4.21004e-01,1.55136e-01,-3.62986e-02,-3.50961e-02,4.91843e-01,2.52129e-04,4.76431e-01,8.14006e-02,-8.57797e-02,4.86172e-01,-1.79686e-01,-7.13380e-03,-4.34488e-01,-4.83999e-01,-7.32370e-01,-1.00569e-01,3.30090e-01,5.67003e-01,1.94843e-01,3.91603e-02,3.25113e-01,-8.07573e-02,1.11770e-02,3.20342e-01,1.15553e+00,-7.47347e-01,5.35409e-01,-3.64345e-01,5.26683e-01,-1.30210e-01,-2.22536e-02,6.32918e-01,-3.48608e-02,
-6.44591e-02,-7.32551e-02,7.17037e-01,-2.82808e-02,2.89099e-01,-4.94480e-02,3.29161e-02,-4.32261e-01,-6.44727e-01,9.94608e-02,-3.58561e-02,5.55805e-02,7.06522e-01,5.13140e-01,-4.08795e-02,8.55267e-02,5.16043e-01,-1.33916e-02,3.83236e-02,6.73852e-01,-1.13564e-01,-1.48782e+00,7.10948e-01,-3.41799e-02,-7.62169e-01,1.95070e-01,-1.46567e-01,-6.38523e-01,6.23684e-01,6.14738e-02,4.95251e-01,-3.69251e-01,-1.06202e+00,9.87867e-03,1.94258e-02,1.00758e-01,6.39769e-01,-2.78788e-02,7.61095e-02,1.44288e-01,1.60302e-01,-2.58145e-01,-2.65285e-02,-4.07440e-01,-7.12040e-02,
-1.04274e-01,-3.15231e-01,4.43368e-01,-4.19405e-02,1.35334e+00,2.94240e-02,-6.34122e-01,-2.95428e-01,-5.01933e-02,-3.08080e-01,-3.75434e-02,-7.49523e-01,-6.95612e-01,-2.68874e-01,3.23869e-02,2.86217e-01,4.89401e-01,2.65115e-02,-7.06515e-03,-1.05348e-01,1.33377e-01,-1.58460e-01,5.56626e-01,1.62107e-02,1.06035e-01,5.44705e-02,6.39665e-02,-2.86729e-01,6.97728e-02,4.39401e-02,-4.24393e-01,3.40385e-02,1.17109e+00,8.58299e-03,-3.93349e-02,-4.76832e-01,-7.25205e-01,2.03889e-01,4.78783e-01,-7.26325e-02,4.05376e-01,1.78580e-01,1.59036e-02,2.63107e-04,-4.50966e-02,
2.45185e-01,-3.66390e-01,-2.20979e-01,-4.77486e-02,2.06799e-01,9.55743e-03,7.90435e-02,-9.03002e-02,-8.35708e-03,-3.58008e-01,-3.84518e-02,-8.70657e-01,-1.17083e+00,3.05869e-01,-1.95860e-03,2.73886e-01,-3.40153e-01,4.71648e-02,4.69813e-01,1.61484e-01,-1.56389e-01,3.51890e-02,-9.70679e-02,3.23963e-02,3.76266e-01,-7.64348e-01,4.33555e-01,1.05996e-02,-1.28010e-01,-5.99694e-01,-4.42759e-01,-2.41289e-01,1.09045e+00,9.25901e-03,-6.40797e-03,-4.03711e-02,-4.24164e-01,9.71258e-02,-3.46263e-04,4.18252e-02,-1.88668e-01,-1.10865e+00,-5.83442e-03,2.76747e-01,5.04169e-02,
1.94291e-02,4.52533e-03,-9.79202e-02,-4.35234e-03,6.52640e-01,7.29308e-02,3.98002e-01,-2.37940e-01,-1.46968e-01,-3.13253e-01,2.32677e-03,-2.60069e-01,2.81854e-01,-1.08279e-01,-1.53859e-04,8.70884e-02,-3.53576e-02,-2.82256e-02,1.68079e-01,-2.19114e-01,-1.28299e-01,-2.21392e-01,-3.14495e-01,3.05364e-02,-1.04004e-01,3.57069e-01,-2.46127e-01,-1.66736e-01,4.69547e-02,-1.56120e-01,2.02218e-01,1.78414e-01,2.20428e-01,4.87917e-02,5.43382e-03,-5.30544e-01,4.38102e-01,4.90669e-01,2.60024e-01,-7.98637e-01,-3.58826e-01,1.65801e-02,3.23816e-02,9.12141e-02,-4.96481e-02,
6.82895e-02,-1.23442e-02,-6.13826e-02,2.72470e-02,-4.31326e-02,-3.39567e-02,1.34115e-02,-2.48540e-02,-2.26177e-02,-1.45900e-03,3.06847e-02,3.25455e-02,-6.14514e-02,-1.89016e-02,3.16824e-03,2.15348e-02,1.77022e-02,-9.64242e-03,-4.87736e-02,6.49254e-03,-3.52808e-02,-2.64534e-02,-2.33058e-02,-3.95290e-04,-7.24456e-03,-5.18519e-02,-2.48608e-02,-2.99203e-02,-3.89624e-02,-2.86087e-02,-4.66563e-02,1.23676e-02,-4.05402e-02,1.91928e-02,4.22507e-02,-1.09261e-02,1.77063e-02,3.15080e-02,-4.36457e-02,5.89011e-02,8.01578e-03,-2.27624e-02,-1.26183e-02,-1.27587e-02,-2.78087e-02,
1.74777e+00,6.08521e-01,6.25163e-01,-3.18193e-02,-3.37279e-01,1.18131e+00,1.65802e-01,-2.41571e-01,3.38375e-01,4.12565e-02,-3.09677e-02,-1.55320e-01,3.66842e-01,-3.68429e-01,4.22304e-03,4.90660e-01,2.72260e-01,-2.27840e-02,-6.44905e-02,1.30416e-01,1.74432e-01,8.04675e-01,-3.71323e-01,1.67183e-02,-3.27020e-01,4.47053e-01,-3.92967e-03,2.84269e-01,3.65384e-01,6.30074e-01,3.99269e-01,-8.25536e-01,-1.82882e+00,-5.16692e-02,7.19362e-04,-5.75019e-01,4.75614e-03,3.42198e-01,4.89769e-01,-1.18860e-01,1.96246e-01,4.51330e-01,-1.62597e-02,4.34986e-02,2.38289e-03,
7.37663e-02,-4.27044e-01,8.59562e-02,1.54707e-02,-7.27797e-01,5.74110e-02,-2.31389e-02,-4.86573e-01,-1.79322e-01,-2.24466e-01,-1.75446e-02,-1.28805e-01,3.40257e-01,-5.69234e-01,-1.89510e-02,-5.92978e-01,2.83927e-01,5.39209e-02,3.34672e-01,-2.59143e-01,6.60271e-02,-3.56863e-01,-2.90605e+00,4.11418e-02,5.78249e-01,-6.18977e-01,1.51058e-02,-1.45699e-01,-1.42986e-01,-1.25473e+00,4.56970e-01,-3.58649e-01,1.08813e-01,-1.74400e-02,8.45009e-04,2.22119e-01,7.87821e-02,-2.79606e-01,-9.43855e-02,-8.40320e-01,-2.21827e-01,-2.79463e-02,3.10846e-02,-5.20365e-02,-4.55264e-02,
-1.99991e-02,-2.15445e-02,-1.16754e-02,-3.67825e-02,1.13830e-02,-5.01286e-02,3.63413e-03,-4.32261e-03,2.54786e-02,-4.12820e-04,1.83141e-02,1.36010e-02,2.33976e-02,-4.92620e-02,1.50050e-02,-2.89855e-02,1.76883e-02,3.01680e-02,-5.82763e-02,-5.66281e-02,-4.34182e-02,2.66269e-02,-4.23529e-02,2.46138e-02,-1.30603e-02,-5.31049e-02,-1.69616e-02,1.25230e-02,1.57956e-02,3.31922e-02,8.28403e-03,-7.48510e-03,2.94144e-02,4.59971e-02,-1.02308e-02,-3.68860e-02,-2.88468e-02,-6.92856e-03,-2.89761e-02,-4.49083e-02,-1.07189e-02,-4.07255e-02,-2.50735e-02,-1.77095e-02,6.30371e-03,
2.37810e-01,3.11301e-01,2.16245e-01,-2.10036e-03,-5.57239e-01,-8.70987e-02,2.49287e-01,-4.69935e-01,-1.60071e-01,2.15093e-01,2.31208e-02,4.29607e-01,-2.39279e-01,-2.23470e-02,-4.84692e-02,-1.88789e-01,2.48567e-01,-7.87926e-03,-1.51118e-02,-4.85581e-01,-1.17368e-02,-2.72777e-01,-1.33368e-01,4.47777e-02,-2.83933e-01,5.23882e-01,4.86228e-01,7.68784e-03,-6.14977e-02,-1.32186e-01,5.02514e-01,-7.33643e-01,-1.64064e-01,-3.78932e-02,4.50122e-02,1.43987e-01,6.99020e-01,1.13578e-01,1.92084e-01,-4.83575e-01,-3.66886e-01,-1.18062e-01,3.96398e-02,-2.65808e-01,2.05362e-02,
-1.22791e+00,6.70889e-01,6.17866e-01,2.69000e-02,-9.76479e-01,-2.43615e-01,-1.56990e-01,1.00596e+00,5.02672e-02,2.43359e-01,2.28808e-02,-1.57288e+00,8.67847e-01,5.61687e-01,-8.52930e-03,4.75793e-01,6.53103e-01,3.02820e-02,7.00899e-01,-2.93744e-01,3.64581e-01,1.37012e-01,-1.50535e+00,-4.34539e-02,2.35764e-01,2.27730e-01,2.51635e-01,-4.40508e-01,6.38809e-01,5.88677e-01,1.46093e-01,1.90411e-02,-3.00790e+00,-3.40627e-02,3.41301e-03,-9.88974e-02,-1.22605e-01,7.22996e-01,8.96597e-01,1.12023e-02,5.37540e-01,7.75258e-01,1.22942e-02,-2.86385e-01,-2.68105e-02,
-1.13993e-02,7.61112e-03,-8.83568e-03,-2.16523e-02,8.02328e-03,-2.66361e-02,-4.27686e-02,2.28112e-02,-2.55572e-03,-6.01479e-02,1.97006e-02,-4.49788e-02,-2.85882e-02,-2.64029e-02,4.02205e-02,4.71235e-03,-6.31188e-02,-3.11579e-02,-4.20016e-02,7.64173e-03,-3.90826e-02,6.81074e-03,-2.16673e-02,4.15286e-02,-2.44110e-02,1.18112e-03,-6.53301e-02,-5.41721e-02,-2.37394e-02,-3.34973e-02,-5.85828e-02,-1.61372e-02,-2.14787e-02,4.76433e-02,2.30423e-02,-1.71449e-02,-4.57273e-03,2.30148e-02,2.03497e-02,-3.84142e-02,-2.02490e-03,-3.69629e-04,-2.08036e-02,-4.37168e-02,3.20433e-02,
2.35588e-02,-4.91356e-02,-6.25868e-03,-2.51481e-02,-4.44186e-02,-2.43503e-02,-4.41642e-02,2.59057e-03,-2.62741e-02,2.32971e-02,-1.50330e-02,3.58460e-02,2.26773e-02,-7.01437e-03,-1.35558e-02,3.27262e-03,2.65543e-02,3.91944e-02,-1.31441e-02,-1.53784e-02,-4.89675e-02,1.75085e-02,-1.96184e-02,4.30641e-02,-6.44517e-02,-1.15441e-02,1.27366e-02,1.21859e-02,4.43940e-03,-4.27728e-02,-2.77834e-02,-2.41500e-02,1.90442e-02,-3.70096e-02,1.75524e-02,-6.05393e-02,-5.17805e-02,-3.56115e-02,1.37030e-02,-5.43951e-02,-3.70113e-02,-3.11938e-02,1.48450e-02,-2.26147e-02,-1.39418e-02,
6.50283e-01,-3.20116e-01,-1.14395e-01,4.14545e-03,2.54898e-01,4.03328e-01,-1.41840e-01,-4.99742e-01,1.14529e-01,1.42512e+00,-4.59604e-02,-2.49002e+00,8.62321e-02,7.70555e-01,3.19248e-02,-9.99408e-02,5.95023e-02,4.13653e-02,8.49124e-02,-3.73299e-01,-7.80101e-02,2.19345e-02,1.84974e-01,-2.22890e-02,1.23089e-01,-9.75664e-02,-1.49320e-01,-3.30646e-02,6.86745e-02,-3.27409e-01,3.33149e-02,1.13291e-01,6.79716e-01,-2.13059e-01,1.95666e-02,4.41288e-01,8.40187e-02,-6.34159e-02,3.81111e-02,-1.09980e-01,9.22292e-01,-8.64133e-01,1.84895e-02,1.37340e-01,-2.00328e-02,
-1.24639e-02,-4.50756e-02,-5.68973e-02,-1.95242e-02,-3.56644e-02,-2.54576e-02,-4.32116e-02,-3.18474e-03,2.05573e-02,-4.66067e-02,3.68704e-02,-9.17538e-03,2.50528e-02,-3.19711e-02,-2.35581e-02,-7.60400e-03,-9.44208e-03,-5.27861e-03,-4.54649e-02,-2.18454e-02,-4.96695e-02,3.60618e-02,2.46432e-03,-4.50446e-02,-9.49645e-03,-3.87559e-02,-2.57709e-02,-5.27576e-02,1.22351e-03,1.92612e-02,-3.70724e-02,-4.68906e-02,-1.76913e-03,-1.48205e-02,4.75171e-02,-2.03534e-02,-2.24521e-02,3.02026e-02,-1.34972e-02,-1.48262e-02,-4.50882e-02,1.33221e-02,4.30458e-02,1.50798e-02,-8.24907e-03,
-3.34035e-02,1.06883e-02,-5.80295e-02,-3.94823e-02,-4.52954e-02,-3.78653e-04,-4.78311e-02,1.38550e-02,3.08902e-02,2.33734e-02,6.24443e-03,-4.67563e-02,-1.68286e-02,-3.94030e-02,3.36317e-02,-1.07583e-02,-3.15085e-02,-3.30625e-02,2.79154e-02,1.74731e-02,-4.08147e-02,-2.34890e-02,-6.87502e-02,-1.22152e-02,7.13626e-03,-3.45249e-02,1.97185e-02,1.36897e-02,-4.85947e-02,3.01274e-02,-4.68118e-02,-3.17572e-02,-1.77704e-03,-6.68659e-03,-2.96699e-02,-6.88394e-03,-3.87449e-02,-3.63722e-02,-8.61107e-03,-1.16987e-02,2.27803e-02,-5.58943e-02,2.96924e-02,-3.36435e-02,-4.13140e-02,
6.31056e-03,2.98226e-02,2.71558e-03,4.03584e-02,-4.71385e-02,2.61730e-02,-2.15534e-02,-3.61859e-02,-3.95812e-02,4.33100e-03,-1.31570e-02,-9.53102e-03,-3.65140e-02,-1.16085e-02,-3.14961e-02,-3.19571e-02,-4.33473e-04,4.16089e-02,-9.86325e-03,-5.41957e-02,5.61611e-03,-4.37882e-03,8.31283e-03,-2.77820e-02,-3.48877e-02,-2.51696e-03,2.47299e-02,-2.70554e-02,-3.54079e-02,4.89271e-03,-6.05239e-02,-5.26045e-02,1.79661e-02,2.71215e-02,-2.86210e-02,2.62154e-03,-5.87312e-02,-5.27972e-03,1.44212e-02,-2.12867e-02,-5.56646e-02,9.33401e-03,-1.84181e-02,2.78482e-02,3.78907e-02,
-2.84279e-02,2.75581e-02,-2.25512e-03,2.46856e-02,2.23432e-02,-6.32876e-02,-4.59619e-02,4.38960e-03,1.27307e-02,1.64499e-02,-6.32592e-03,-2.40448e-02,-1.96171e-03,1.04266e-02,8.54223e-05,-1.33129e-02,1.31629e-02,1.00670e-02,-3.86923e-02,-7.28107e-03,-5.80938e-02,-4.62643e-02,-1.93024e-02,-3.90941e-02,-3.39836e-02,-4.89206e-02,1.98213e-02,-3.62725e-02,-5.81907e-02,1.21225e-03,2.76555e-02,-3.39270e-02,1.85523e-02,-3.58864e-02,-7.19047e-03,-3.83932e-02,-1.64577e-02,-2.35064e-02,-4.03753e-02,2.18614e-03,-4.55911e-02,-2.49303e-02,2.08965e-02,-6.45153e-02,3.23536e-02,
-5.64462e-02,-6.39816e-02,-1.08626e-01,-4.00754e-02,4.23149e-01,1.51605e-01,9.04548e-01,-4.80263e-01,-6.42766e-02,3.85726e-01,-6.54905e-03,-2.84297e-01,1.10311e+00,-3.50705e-02,-2.04016e-02,-2.10719e-01,3.18365e-01,-3.73736e-02,4.43375e-01,6.42926e-01,-4.90522e-02,-1.62970e-01,2.39817e-01,-1.58018e-02,-4.77614e-01,5.31515e-01,-2.11542e-01,-4.28038e-01,4.18929e-02,-7.45616e-01,8.81976e-01,-7.21503e-02,-3.62172e-01,-3.59865e-02,-3.68545e-02,-9.27740e-02,6.94239e-01,-1.34547e-01,-1.81384e-01,-1.84902e+00,4.72552e-01,5.07990e-01,-1.81707e-02,-8.62357e-01,1.88085e-03,
7.72056e-01,5.23569e-02,-7.20430e-01,4.04743e-02,-4.86598e-01,2.86060e-01,1.68746e-01,2.27143e-02,-2.98888e-01,4.81234e-01,1.60315e-02,-1.01943e+00,-6.02566e-01,1.25717e-01,2.05077e-02,-1.14045e-01,5.69688e-01,4.51862e-02,5.24972e-02,-2.62333e-02,-7.80838e-01,3.55594e-01,2.94420e-02,-8.07823e-03,3.04260e-01,-4.97769e-01,1.30930e-01,-4.22161e-01,-1.68679e+00,-3.49892e-01,1.40896e-01,3.84899e-01,2.04637e-01,-4.07377e-02,4.31588e-02,4.04887e-02,-1.32123e-01,7.21866e-01,4.65598e-01,3.34466e-01,2.30654e-01,5.40519e-01,9.67798e-03,-4.57539e-01,-3.15388e-02,
1.89065e-01,-6.74669e-01,-3.03681e-01,4.04047e-02,1.44156e-01,-7.78751e-02,6.82842e-01,-1.80377e-01,2.67845e-01,-3.03767e-01,3.92259e-02,4.34179e-02,4.99449e-01,-4.38753e-01,2.48449e-02,9.90682e-02,4.19785e-02,2.40775e-02,1.32187e-01,2.34843e-01,-3.44392e-03,-1.38804e-01,-2.46843e-01,1.01629e-03,-1.25670e-02,-3.89264e-01,-2.94595e-01,1.99394e-02,-1.09972e-01,-1.10721e+00,1.72803e-01,-5.01970e-02,-2.54141e-02,-1.49821e-02,2.45221e-02,8.14181e-02,3.41598e-01,-7.48857e-01,-3.60258e-01,-1.65692e+00,-2.81243e-01,8.55587e-02,5.14194e-03,2.18412e-02,-1.58522e-04,
-2.53321e-02,-4.47444e-02,-5.35799e-02,2.48265e-02,8.01971e-03,-4.91059e-02,-2.42200e-02,-1.93643e-02,-4.70488e-02,-1.52724e-02,-6.75194e-03,-9.28666e-03,-2.98661e-02,2.12851e-02,3.26018e-02,4.58069e-03,-2.43678e-02,-4.83738e-02,-1.13207e-02,3.30499e-02,9.63119e-03,1.11614e-02,-8.05950e-04,-4.45388e-02,-4.54560e-02,-5.91686e-02,-7.41521e-03,-1.11235e-02,-1.38914e-02,-4.07480e-02,2.21868e-02,-6.02799e-02,3.73700e-03,3.54748e-02,1.85169e-02,1.45624e-02,-1.33026e-02,2.34108e-02,1.55154e-02,-4.38989e-02,1.44341e-02,-5.44362e-02,-4.15274e-03,-3.97478e-02,-5.14766e-03,
-1.27125e-01,2.42130e-01,-4.08623e-01,-1.77678e-02,-3.28843e-01,1.00753e-01,5.51611e-02,-2.95914e-01,-5.76674e-01,3.82798e-01,2.63875e-02,1.18548e-01,7.47836e-01,2.35435e-01,-1.25088e-02,-3.32366e-01,1.27536e-01,-1.74386e-02,1.18942e+00,-6.35273e-01,5.12486e-02,-9.44400e-01,-5.70990e-01,1.05024e-02,1.05443e-01,6.59569e-01,8.48702e-02,-2.21398e-01,4.38306e-01,-4.87845e-01,5.42677e-01,-2.81692e-01,1.37939e-02,-3.14257e-02,-4.44431e-02,-6.43219e-02,7.16331e-01,3.04721e-02,-5.48025e-01,-1.05905e+00,5.77480e-01,3.24789e-01,2.13682e-03,6.73693e-01,3.94515e-02,
-1.64318e-01,5.34769e-03,-2.41512e-01,2.36927e-03,1.96887e-01,3.18562e-01,-7.91650e-02,-9.83749e-03,-1.92325e-01,1.15824e-01,-2.83218e-02,-4.10722e-01,-1.67123e-01,-8.91880e-01,3.84093e-02,-9.14879e-01,2.20667e-02,6.74408e-03,-2.12235e-01,2.87755e-01,-1.98330e-01,2.95441e-01,2.89822e-01,-1.04615e-02,-8.59695e-02,-2.30868e-01,1.87888e-01,-2.96243e-02,-4.22311e-01,4.73561e-01,1.40093e-01,-2.06135e-01,4.13180e-01,5.44103e-02,-2.50730e-02,-2.39269e-01,5.23245e-03,-4.54001e-01,-2.33021e-01,2.92062e-01,-3.01053e-01,-5.86771e-01,2.58737e-02,2.73112e-01,2.50105e-02,
-1.96261e-01,3.17410e-01,4.03503e-01,-1.26796e-02,2.46159e-01,-4.52514e-01,2.52938e-01,-3.21659e-02,4.66540e-01,2.60669e-01,-2.02671e-02,-2.33067e+00,2.53910e-01,3.14129e-01,9.06316e-03,-3.66134e-01,4.79383e-01,-2.60928e-02,1.09962e-01,-7.76670e-02,6.20915e-01,-9.54202e-02,-5.59387e-01,4.88412e-02,-4.22591e-04,1.40523e-01,-1.53915e-01,-1.92663e-01,1.87310e-01,4.90292e-01,1.58241e-02,2.67606e-01,-6.67081e-01,4.02346e-02,5.47191e-02,1.33613e-01,5.26385e-01,-4.25396e-01,6.00516e-02,-3.36052e-01,5.74227e-01,2.62986e-01,-1.34857e-03,7.27249e-02,-2.20783e-02,
-1.00988e+00,-9.61209e-01,-8.87448e-01,-2.73097e-02,-6.28871e-01,9.06824e-01,6.36116e-01,-2.43310e-01,-9.30773e-01,3.56554e-01,-2.12349e-03,-5.43478e-01,7.71561e-01,2.71092e-01,-1.83535e-02,-9.92989e-01,-3.34190e-01,5.49340e-02,1.05795e-01,-5.28133e-02,2.24283e-01,-7.23162e-01,-1.30067e-01,-3.48966e-02,3.66076e-01,6.09858e-02,-4.40373e-01,1.66469e-01,3.95394e-02,-1.30288e-01,2.88327e-01,-3.00351e-01,5.87282e-01,6.15915e-03,-4.86455e-02,3.51776e-01,-2.06367e-01,-5.12961e-01,-9.59971e-01,-2.49264e+00,4.75427e-01,2.47444e-01,2.66161e-02,-3.23482e-01,1.53849e-02,
-2.89924e-03,-5.99171e-02,3.33826e-02,1.54963e-02,4.08200e-03,-6.07564e-02,-4.82497e-02,5.89248e-03,1.37726e-02,-2.62837e-02,-2.10002e-02,8.09392e-03,-4.12905e-02,-4.33302e-02,1.74113e-02,3.04744e-02,7.74960e-04,4.51636e-02,-2.96201e-02,-1.37339e-02,2.60358e-02,1.83683e-03,-2.05936e-02,1.91521e-02,-5.86801e-02,-4.02715e-02,2.67353e-03,-2.51179e-02,-4.73727e-02,-3.64097e-02,4.99990e-03,2.47722e-02,-2.66680e-02,-2.64755e-02,-4.15357e-02,-7.00352e-02,-4.66040e-02,2.25218e-02,3.15094e-02,-3.43367e-02,3.79899e-02,-1.10210e-02,3.22532e-02,-2.32788e-02,4.28890e-02,
2.07755e-01,-3.21985e-01,-1.61815e-01,-1.63459e-02,3.62910e-01,2.14866e-01,-1.10821e-01,-1.29201e-01,-2.12070e-01,-5.72066e-01,-4.18476e-02,9.53701e-02,-7.79033e-01,-4.75092e-01,4.05961e-02,-3.60467e-01,1.98230e-01,-1.29336e-02,3.65674e-01,-1.62951e-01,1.19717e-01,1.42041e-01,-2.05217e+00,3.62590e-02,-3.71686e-01,-4.80864e-01,-2.32841e-01,-4.47601e-01,-3.34089e-01,6.40480e-01,2.40142e-01,-9.05224e-04,-3.02660e-01,8.33584e-02,-4.20318e-02,2.07598e-01,-3.00412e-01,-2.43511e-01,-4.01293e-02,-2.47065e-01,-7.36032e-01,4.52703e-01,5.89812e-03,1.04336e-01,-4.44591e-02,
8.08819e-02,1.39537e-01,-8.03230e-02,9.55325e-03,1.06201e+00,-1.14789e-01,3.04112e-01,-1.65877e-01,-1.68465e-01,-1.66391e-01,-3.11348e-02,-2.18462e+00,-2.43295e-01,5.66648e-01,1.77832e-02,1.26343e-01,-1.38184e-02,7.14971e-02,-8.21403e-01,4.93219e-02,1.47227e-01,8.49881e-01,-4.25230e-01,-1.71970e-02,-5.61399e+00,7.37284e-01,-4.69544e-01,1.57383e-01,-1.84348e-01,-8.62867e-01,4.90948e-01,-4.31869e-01,-7.22450e-01,-7.30326e-02,-4.81561e-02,-4.43670e+00,4.13601e-01,3.92574e-01,5.34673e-01,4.46395e-01,2.48466e-01,-3.57394e-02,-2.51767e-02,7.21709e-01,-3.75825e-02,
1.40445e-01,-1.37217e-01,-1.22546e-01,-4.70725e-02,5.91760e-01,-4.15369e-01,4.52246e-01,-2.58913e-01,9.63903e-02,9.40196e-02,1.84582e-02,-9.93237e-01,7.95103e-01,2.72866e-01,-6.88490e-03,-2.67435e-01,8.63388e-02,-1.02797e-02,4.11740e-01,3.69866e-01,-2.79945e-03,-4.85281e-03,3.87337e-01,-2.40985e-02,2.34584e-01,-2.48759e-01,-1.99275e-01,-2.70712e-01,7.28939e-02,4.32075e-01,3.37907e-01,-3.50933e-01,1.07235e-01,-1.46848e-02,-1.20341e-02,1.06496e-01,4.85922e-02,-2.11488e-01,-6.26045e-01,-6.29687e-01,3.02772e-01,2.28099e-01,3.38517e-02,-7.50458e-01,-5.53463e-02,
-2.04278e-01,
-2.43573e-01,
2.68367e-01,
-2.46683e-01,
1.45695e-01,
-1.02466e-02,
2.85298e-01,
-1.94737e-01,
-6.52662e-03,
3.04150e-01,
-2.97026e-01,
-1.55303e-02,
2.03604e-01,
-5.42742e-02,
-3.58405e-02,
9.05897e-02,
-1.97283e-01,
-6.09557e-02,
2.82859e-01,
2.20751e-01,
-3.58578e-02,
-2.76772e-01,
7.18705e-01,
-2.84383e-02,
2.53374e-01,
7.57061e-01,
-2.11472e-02,
-2.37196e-02,
-4.34479e-01,
-2.05917e-02,
-2.91968e-02,
-1.21805e-02,
-2.16550e-02,
-4.07269e-01,
-7.51537e-01,
2.83773e-02,
-1.68492e-02,
1.96942e-01,
3.00254e-01,
7.64627e-02,
1.28678e-01,
-2.27363e-02,
3.15590e-01,
-2.37375e-01,
-9.84246e-02,
9.07535e-02,1.47028e+00,-7.43839e-01,3.08450e-01,6.31305e-01,4.83155e-02,-5.25775e-03,3.86158e-01,-2.76652e-02,2.08162e-01,-4.19756e-01,-2.49405e-04,1.83276e-01,-6.92180e-04,-1.43154e-02,-8.92945e-02,-4.71117e-01,4.92051e-01,2.83722e-01,6.20179e-01,-2.58541e-02,-5.67038e-02,1.03844e+00,-1.38973e-02,1.76918e-01,1.94587e-02,-3.67192e-02,1.10005e-02,1.06911e-01,8.79479e-03,-3.63176e-02,1.13676e-02,-1.48081e-02,-4.81921e-01,-9.73782e-01,3.98006e-02,1.43023e-02,1.97770e-02,4.42239e-01,-1.96549e-01,-1.11292e-01,8.95111e-02,-3.60331e-01,-2.27291e+00,-7.52760e-01,
1.72394e-01,-7.30187e-01,-1.82897e-01,2.42607e-01,-1.57915e-01,1.57342e-02,3.37517e-01,9.62014e-01,2.13410e-04,-5.28221e-01,-1.18443e-01,3.13102e-02,-2.52444e-01,-1.10080e-03,2.19798e-03,-3.46960e-01,-5.88158e-01,-1.28986e-01,3.64882e-01,3.22549e-01,2.63417e-02,1.42690e-01,2.14052e-01,2.72413e-02,1.66117e-01,-7.69271e-02,-4.10939e-02,5.96941e-02,2.63197e-01,3.73553e-02,-3.35003e-02,-2.54063e-02,6.02827e-03,-3.50206e-01,-1.30095e+00,3.22237e-01,-3.29333e-02,-3.51457e-01,1.37993e-01,-1.26394e-01,4.40853e-01,7.89003e-03,-2.35909e-01,3.37980e-01,-2.88421e-01,
1.05250e+00,1.54897e-01,-1.46009e-01,5.07095e-01,-4.29569e-01,2.66093e-02,-1.07602e-01,5.92418e-01,4.37333e-02,4.15111e-01,2.37976e-01,4.73234e-02,-3.41619e-01,-1.50984e-02,-2.35420e-02,1.16150e-01,1.33679e-01,2.30162e-01,-2.01740e-01,-1.65080e-01,-6.63757e-02,1.39013e-01,-1.78983e-01,-3.44878e-02,-4.92004e-01,-6.38640e-02,-6.02954e-03,1.76069e-02,-3.61682e-01,4.06353e-02,-3.77747e-02,-2.17047e-02,-1.13683e-03,7.61024e-02,-5.26296e-01,-7.01419e-01,-1.18424e-02,7.71757e-02,-3.27228e-01,-5.06168e-01,4.91688e-01,5.10783e-02,-5.11845e-01,1.18825e+00,-1.55462e-02,
-5.58311e-01,2.28046e+00,5.21289e-01,4.05137e-01,1.22451e+00,-5.94136e-03,-5.50637e-02,3.30121e+00,-4.37366e-02,4.04613e-01,1.29900e+00,2.84351e-02,-1.18580e+00,-3.38724e-02,4.38117e-02,-6.50751e-01,1.64172e+00,-1.45237e-01,-7.82279e-01,-9.14473e-01,-1.00338e-02,6.96356e-02,6.97490e-01,-3.92933e-02,6.99955e-01,-1.58536e-01,-4.48594e-02,-8.09016e-03,-2.95283e-01,-1.69936e-02,-4.69013e-02,1.56634e-02,2.77285e-02,-1.38731e-01,2.56601e+00,1.18286e+00,-1.82968e-02,3.45314e-01,1.03868e+00,8.53797e-01,-2.48781e-01,4.60056e-02,1.08689e+00,3.20770e+00,4.59626e-01,
-1.75801e+00,-6.13056e-01,2.73855e-01,3.05213e-02,8.95050e-01,1.15852e-02,6.44015e-01,-3.50372e+00,-3.79368e-02,-1.07639e+00,-1.47529e+00,-3.73151e-02,-1.83392e-01,-1.45921e-03,7.77420e-03,3.97871e-01,1.97874e-01,-6.91750e-01,-2.72363e-01,1.27185e-01,-7.26798e-02,-3.95914e+00,-7.55212e-02,-2.87145e-03,-5.76676e-02,1.38868e+00,3.16901e-02,-5.82495e-02,7.14801e-01,-2.51456e-02,-1.78276e-02,-4.68143e-02,1.09895e-02,2.31004e-01,1.19407e+00,5.84165e-01,3.96911e-02,-4.24656e-01,-5.70661e-01,6.34102e-01,-1.38641e+00,-5.94763e-02,-5.23495e-01,-1.51425e+00,7.21970e-01,
-1.09540e-03,3.93893e-01,3.81824e-01,-2.66588e-01,-3.01739e-01,2.08296e-02,1.31137e-01,-1.32290e+00,-3.67268e-02,4.34613e-01,-2.01163e-01,4.16232e-02,1.58978e-01,4.34139e-02,-3.52748e-02,1.81473e-01,-5.03252e-01,3.04307e-01,-1.29335e-01,1.14386e-02,-3.26695e-02,1.31220e-01,-4.70893e-01,-1.57048e-02,-1.42920e-01,9.93544e-02,9.04218e-03,5.52133e-02,-1.07379e-01,3.57149e-05,-2.96913e-03,-5.64711e-03,-1.64812e-02,-3.99279e-01,-1.01815e+00,-9.21646e-02,-6.47356e-03,1.03348e-01,-1.89025e-01,1.47061e-01,-1.74400e-01,-1.66687e-02,-7.05566e-01,-3.74319e-01,-8.52023e-02,
7.82507e-02,-5.16612e-01,-2.91383e-01,4.05044e-01,2.26335e-01,-2.87718e-02,3.47308e-01,1.54782e+00,4.33082e-02,8.20427e-01,1.88910e-01,-2.65206e-03,1.01027e-01,4.36596e-02,-4.13795e-02,-6.41968e-02,1.71608e-01,-2.41063e-02,-2.58273e-01,-1.92737e-01,-2.56327e-03,-1.00421e-01,1.99503e-01,-3.59102e-02,4.60427e-01,-7.75819e-02,-3.68076e-02,1.20128e-03,-3.12502e-01,-4.91284e-02,-3.92201e-02,4.89280e-02,5.37569e-02,-4.89581e-01,-2.46106e-01,-9.03248e-01,-8.72129e-03,-4.88059e-01,-3.16393e-01,2.14015e-01,-3.07937e-02,-1.40024e-02,3.13738e-01,4.57041e-01,2.15518e-01,
7.19889e-02,-5.21661e-01,-3.56668e-03,-1.94490e-01,-1.07656e-01,8.52197e-03,7.92571e-02,-8.86398e-01,1.68105e-02,-1.07200e-02,-4.08676e-01,2.17192e-02,-6.45236e-02,1.02367e-02,-4.37491e-02,-1.67234e-01,-2.74145e-01,1.03234e-01,7.14683e-02,-1.02473e-01,-2.41361e-02,6.35003e-02,6.92640e-02,-9.10145e-04,1.35063e-01,9.21583e-02,1.36631e-02,4.62515e-02,1.28359e-01,-2.92253e-02,-2.25089e-02,5.52327e-03,2.38900e-02,-4.81012e-01,-1.67541e-01,-6.03272e-02,-1.32975e-02,-3.72885e-01,-1.60453e-01,-1.26902e-01,-6.13140e-02,3.34468e-02,-2.77901e-01,-4.03467e-01,4.90828e-01,
-8.43314e-02,5.76089e-01,1.68142e-02,7.88730e-02,-4.84660e+00,-2.08517e-02,1.67967e-01,-1.16000e+00,3.90150e-02,9.90396e-02,3.99846e-02,-2.10507e-05,3.38236e-02,1.20133e-02,1.24891e-02,1.43076e-02,2.10065e-01,1.72133e-01,2.25198e-01,1.97775e-01,4.33532e-02,2.86381e-02,-8.63975e-01,-4.11031e-02,2.27140e-01,2.23459e-02,-4.26852e-02,-4.10306e-02,1.01406e-02,3.62330e-02,-1.36331e-02,4.65536e-02,4.09969e-02,-5.55073e-02,-1.14737e+00,1.09457e+00,-7.31059e-03,-1.31047e-01,2.67264e-02,2.86618e-02,1.81381e-01,-3.36521e-03,-2.96758e-01,-2.24198e+00,-8.35537e-02,
-1.46298e-01,-4.28282e-01,3.16840e-01,-3.27459e-01,3.00090e-02,2.14235e-02,4.88914e-02,-9.70564e-01,-3.47238e-02,-2.91156e-02,-2.27250e-01,-3.72182e-02,1.56560e-01,1.33275e-02,-2.66615e-02,-2.82088e-02,-6.22438e-01,3.51572e-02,-9.36599e-02,3.54298e-01,2.54138e-02,1.08103e-01,-1.34594e-01,2.61956e-02,-4.99672e-02,-6.17148e-02,-2.85470e-02,3.34404e-02,9.46962e-02,-2.17328e-02,4.24619e-02,1.44859e-03,-3.75845e-02,-5.19837e-01,-2.91805e-01,-5.16611e-01,-1.72743e-02,3.60526e-01,-1.55586e-02,-1.57952e-01,-6.83585e-02,3.52701e-02,2.32002e-02,-2.34315e-01,-6.49236e-02,
1.74110e-01,-4.65921e-02,1.27813e-01,-1.08241e-01,3.91578e-01,-2.27278e-02,-2.41157e-01,6.07508e-01,-3.86173e-02,-4.38383e-01,-2.11717e-01,-5.21381e-03,-1.27668e-01,-2.99204e-02,-2.31773e-02,2.30060e-02,9.71302e-02,-3.87844e-01,-2.36753e-01,3.07413e-01,-1.38087e-02,-2.27042e-02,2.82561e-01,-1.25173e-02,-2.39878e-01,-8.70086e-02,1.86349e-04,4.42239e-03,2.28953e-01,-3.67403e-02,-1.03819e-02,3.36318e-02,2.85418e-02,-2.57457e-01,1.03790e+00,4.39454e-01,-1.01957e-02,4.57145e-02,1.18944e-01,3.68652e-03,-1.05246e-02,5.59619e-02,1.61313e-01,-9.79577e-01,-3.40313e-02,
1.64277e-02,1.66971e-02,-4.49977e-02,-4.46088e-02,-1.65089e-02,-2.41185e-02,-1.30873e-02,2.66028e-02,-3.66821e-02,2.67464e-02,-7.65723e-03,-2.75216e-03,-4.24243e-02,-6.06819e-03,-2.72085e-02,-6.19117e-03,-4.11573e-02,-2.97138e-02,-1.32202e-02,1.70814e-04,-2.15830e-02,-3.28973e-03,-3.88770e-02,3.26205e-03,-5.06876e-02,-4.68807e-02,-8.91449e-04,-1.39375e-02,-2.64414e-02,-1.14702e-02,-2.69875e-02,-3.15610e-02,5.01621e-02,-1.23443e-02,4.21497e-02,-2.57156e-02,1.74175e-02,1.64556e-02,-5.22329e-03,-2.72576e-02,1.44982e-02,-4.12095e-02,5.52309e-03,7.53038e-03,1.81524e-02,
3.03857e-02,5.99211e-01,-5.55282e-01,5.66411e-02,3.18483e-01,-4.48010e-02,2.80871e-01,1.31550e+00,-1.29816e-02,-4.27427e-01,4.07218e-01,5.63255e-02,-3.58406e-01,3.92339e-02,-1.24034e-02,1.24359e-01,2.10557e-01,3.09122e-01,-3.08111e-01,6.17375e-01,1.51315e-02,-8.03705e-02,-8.36416e-01,-1.26183e-02,-3.10946e-02,-8.31560e-02,-1.79780e-02,3.64022e-02,1.58580e-01,7.74020e-03,1.65862e-02,2.29170e-02,-9.99383e-03,-5.41699e-02,2.54066e+00,1.29743e-01,3.08845e-02,-1.82368e-01,4.54680e-01,-2.77838e-02,-5.97626e-03,4.21210e-02,1.19643e+00,-8.55738e-02,4.20659e-02,
-5.02746e-01,1.47006e+00,1.39085e-01,1.13734e+00,7.57992e-01,-3.46317e-02,-4.46760e-01,2.51509e-01,-3.82096e-02,3.65561e-01,1.41182e+00,-3.22726e-02,-3.66621e-01,4.91060e-02,-3.27655e-02,-9.91108e-01,1.29878e+00,-3.54091e-01,7.17403e-01,9.99684e-01,-2.22963e-02,1.84471e-01,1.09782e+00,1.21919e-02,-4.20597e-01,-2.38844e-02,-1.54243e-02,3.43583e-03,-1.03310e+00,-2.55387e-02,-8.26532e-03,2.51356e-02,1.37692e-02,-4.63627e-01,1.64213e+00,5.97377e-01,-1.32758e-02,-3.05901e-01,1.22600e+00,3.36774e-01,-6.21025e-01,4.44570e-02,6.58049e-01,3.45268e+00,7.54675e-01,
1.57611e-03,7.84407e-03,-4.69220e-02,-5.77677e-02,4.72838e-02,2.16873e-02,-3.60203e-02,-2.37395e-02,-6.97250e-05,-5.04446e-02,-6.17927e-02,3.07680e-02,3.46082e-03,-4.57668e-02,1.97421e-02,9.10346e-04,-6.14231e-02,1.62589e-02,-1.63878e-02,7.19811e-03,6.58487e-03,-3.85238e-02,-4.27587e-02,3.58256e-02,7.67189e-03,-4.00803e-03,-9.09405e-03,4.87154e-02,-3.27503e-02,-3.22388e-03,-5.48158e-03,1.58767e-03,7.81896e-03,-5.08404e-02,-3.72550e-02,8.70703e-03,-4.84011e-03,2.56900e-02,8.00201e-03,-4.16626e-02,-1.00871e-02,2.85346e-02,2.58091e-02,2.91670e-02,-3.61920e-02,
4.00036e-02,-6.77048e-01,1.17775e-02,2.87026e-01,6.49695e-01,3.16671e-02,5.56837e-02,7.51619e-01,-2.30951e-02,2.36483e-01,-5.23494e-02,1.64195e-02,-1.61555e-01,-1.60084e-02,-3.13001e-02,1.10231e-01,2.27460e-02,1.80543e-01,-2.48923e-01,2.74921e-01,-2.47185e-02,-1.91597e-02,2.34884e-01,4.88953e-02,4.03384e-01,-1.62120e-02,-4.06465e-02,-2.80763e-02,4.67744e-02,-7.55376e-03,1.63965e-02,1.20731e-02,-1.97929e-02,3.13749e-02,2.34064e+00,-5.00111e-01,9.29973e-03,1.41298e-01,5.33670e-01,1.52366e-01,-2.23478e-01,-6.45147e-03,-1.65310e-01,1.03528e+00,-2.03321e-01,
9.34057e-03,-3.13877e-02,1.91881e-04,-2.79119e-02,1.60628e-02,-3.50793e-04,-4.99981e-03,-9.26565e-04,9.20556e-03,-1.28045e-02,-5.54241e-03,3.52273e-02,4.08346e-03,-1.90048e-02,2.49595e-02,-3.99579e-02,2.13070e-02,-1.27452e-03,-3.69232e-02,1.45087e-03,8.34966e-03,-3.87699e-02,-4.09514e-02,2.45059e-02,-4.16227e-03,-3.71010e-02,-2.99701e-02,-3.65695e-02,-2.35779e-02,-1.83226e-02,-8.82744e-04,-8.69805e-03,5.07628e-03,9.94551e-03,2.41096e-02,-3.76044e-02,1.06152e-02,-3.87374e-03,3.92064e-02,-3.56239e-02,-4.15769e-02,2.83833e-02,-1.70718e-02,3.13872e-02,-5.88984e-02,
-1.43843e-01,-2.09778e+00,6.03690e-01,9.74290e-01,-2.31014e-02,-4.82325e-02,-1.75498e-01,4.86960e-01,3.20388e-02,9.91859e-01,-1.54759e-01,-3.50184e-02,-5.23519e-02,-7.00363e-03,3.67273e-02,1.59974e+00,7.65522e-01,9.96621e-01,5.24387e-01,-6.85876e-01,-1.44816e-02,-1.41241e-02,4.76670e-01,-4.33624e-02,-2.94426e-01,2.60948e-01,2.34307e-02,-2.31694e-02,1.48952e+00,5.38036e-04,-3.98614e-03,-5.37239e-03,6.19154e-03,1.55959e-01,1.70036e+00,-1.51020e+00,-3.82149e-02,4.91702e-01,-7.87609e-01,7.12554e-01,8.16357e-02,3.34891e-02,-3.41660e-01,-9.40109e-01,-1.35060e-02,
-1.27086e-01,-3.84873e-01,2.80402e-01,1.88355e+00,-3.67886e-01,3.02650e-02,-1.22045e+00,-1.59862e+00,-1.15615e-02,-5.86450e-01,3.21090e-01,2.13911e-03,4.72452e-01,-5.11448e-03,9.62490e-03,-5.09552e-01,-5.61408e-01,9.02723e-01,3.09732e-01,1.66882e-01,3.88949e-02,2.27930e-01,-2.58715e-01,2.71656e-02,-1.48850e-01,-5.35231e-01,2.13916e-02,6.57344e-03,1.32198e+00,-1.78481e-02,-3.55021e-02,-3.75779e-02,4.68799e-03,1.79184e-01,1.46830e+00,-7.47334e-01,-4.84607e-02,-2.56238e-01,2.10016e-01,6.00136e-01,6.70131e-01,-3.57536e-02,2.92092e-01,2.09280e+00,3.44287e-01,
-1.14127e-01,-1.79194e-01,-9.31019e-02,-1.47097e-01,-9.87661e-02,-7.30873e-03,3.92739e-02,5.06155e-01,1.85630e-02,-3.46665e-01,-5.56361e-02,9.00420e-03,-1.85183e-01,-1.29675e-02,-9.98508e-03,-1.71130e-01,3.16890e-01,-1.52185e-01,-4.77758e-02,-1.39310e-01,2.29382e-02,5.08975e-02,-6.90866e-02,-1.36221e-03,3.36951e-02,-1.37157e-01,-5.63601e-02,5.11848e-02,-3.46596e-01,7.17547e-04,4.29528e-02,-4.93363e-02,2.88369e-02,3.62504e-01,-1.88213e-01,4.45558e-01,3.29594e-02,-1.47900e-01,4.06028e-01,-1.55793e-01,-5.67939e-02,1.60456e-02,-7.64835e-02,5.88574e-02,9.34998e-02,
-5.43935e-01,-1.26928e+00,-6.69941e-01,-1.71639e-01,-7.26595e-01,-8.88677e-03,-2.84831e-01,-7.45210e-01,1.13827e-02,-6.14439e-01,-3.20949e-02,-2.46173e-03,-1.39745e-01,-9.30416e-02,3.92760e-02,7.61088e-02,-9.88397e-02,-1.63634e-01,-2.17140e-01,-1.85032e-01,-6.25985e-02,2.91654e-01,-2.49360e-02,-3.07619e-02,-5.52269e-02,-2.43149e-01,3.96028e-02,2.49016e-02,6.33167e-01,1.58581e-02,-5.58133e-03,-4.54396e-02,-1.26768e-02,2.34208e-01,-6.73623e+00,1.05054e-01,4.51369e-03,-5.36861e-02,-2.46801e-01,4.07847e-02,-1.90779e-01,-4.62931e-03,-1.40223e-01,-2.80856e+00,4.28627e-01,
-2.57751e-02,1.74486e-01,-2.27116e-01,-1.31396e-01,-2.45940e-01,1.13856e-02,-4.62959e-01,3.90414e-01,-4.15566e-02,-2.11206e-01,-2.06207e-02,-3.17027e-03,1.67244e-01,-4.89547e-02,-9.67100e-03,3.40235e-01,6.12149e-01,-4.40873e-01,3.81859e-01,-2.53760e-01,-1.19165e-02,9.43068e-02,-2.96099e-01,-4.51936e-02,7.30074e-02,1.57269e-01,2.22171e-03,1.35492e-02,-2.64503e-02,5.17307e-03,5.44456e-02,4.64690e-02,3.36735e-03,-6.06858e-02,4.33946e-01,-6.18926e-02,-4.21765e-02,-1.66416e-01,-2.11839e-01,-4.94413e-02,7.51898e-02,-1.72313e-02,-1.12974e-01,2.98829e-01,1.15473e-01,
9.49250e-02,-1.13655e-01,-6.14101e-02,3.79350e-02,-3.58981e-01,4.18878e-02,-1.50384e-01,1.89115e-01,7.37724e-03,2.52302e-02,-1.46208e-01,7.50420e-03,1.67941e-01,-3.41725e-02,3.37640e-02,2.91837e-01,1.77084e-01,5.67660e-01,-9.14880e-01,3.41458e-01,-5.58494e-02,-8.45049e-02,-1.28419e-01,-1.66387e-02,2.56955e-01,-5.74856e-02,1.18926e-02,4.43061e-02,1.59232e-01,-9.20216e-03,5.26427e-02,1.39236e-02,5.29277e-02,-3.70392e-01,-5.67082e-01,-1.24889e-01,-1.54325e-02,3.79178e-01,-5.42708e-01,-1.96596e-01,-7.37035e-02,1.50308e-03,9.98751e-01,5.46180e-01,1.20245e-02,
-1.14178e-01,7.19123e-02,-2.82281e-01,-1.14636e-01,4.85746e-01,1.23031e-03,2.53708e-01,4.62265e-02,-3.11806e-02,5.00381e-02,-2.50148e-01,-5.09242e-02,-5.86346e-02,2.60117e-02,-4.20660e-02,1.15681e-02,-6.84218e-01,-2.91902e-01,1.42117e-01,5.83896e-02,-4.77509e-02,1.12828e-01,1.18254e-01,-4.51490e-02,-1.32286e-01,-3.57617e-02,2.53056e-02,-2.25373e-02,-6.26477e-01,3.61270e-02,9.09437e-03,-3.12616e-02,-8.73602e-03,-6.70617e-02,-1.09090e+00,1.48091e-01,-4.34767e-02,3.33060e-01,8.97665e-03,3.70679e-01,-1.20841e-01,-4.16407e-02,8.54291e-02,-2.23240e-01,-6.78767e-01,
2.20187e-01,-3.26856e-01,2.15458e-01,3.70007e-01,3.46576e-01,9.37211e-03,-4.27779e-01,4.63431e-01,3.49240e-02,1.22437e-02,-3.20708e-01,3.00122e-02,3.37191e-01,9.65796e-03,3.82053e-02,-2.96570e-01,-1.29984e-01,1.75226e-02,4.25778e-02,7.28430e-01,2.79632e-02,1.02919e-02,1.17200e-01,-3.56824e-02,7.03895e-01,2.03121e-01,1.46773e-02,-3.11290e-02,-1.76166e-01,-1.32719e-02,-3.62463e-02,-4.00553e-02,-1.18382e-02,-1.22185e+00,-1.81692e-01,-4.38345e-01,-9.76988e-03,3.78040e-01,-5.32416e-01,6.27735e-02,-5.34250e-02,-1.68600e-02,-2.36860e-01,-4.67066e-01,-1.95452e-02,
1.71413e-01,1.23738e+00,-1.77682e-01,3.08078e-01,1.80654e-01,-2.72422e-02,-6.55079e-02,7.51067e-01,2.15710e-02,-1.50579e-01,4.07513e-01,4.76414e-02,-1.86287e-01,-1.57527e-02,-4.52852e-02,-2.59180e-01,3.37889e-01,4.57689e-01,-1.49731e-01,-6.77907e-02,-3.67324e-02,-3.02477e-02,3.29219e-01,-5.32434e-04,-1.13216e-01,2.39485e-02,-2.49437e-02,1.05814e-02,1.10145e-01,-3.72636e-02,2.90705e-02,3.82542e-02,1.19478e-02,1.61727e-02,1.03120e+00,2.13612e-01,2.01417e-02,-9.84934e-02,1.55786e-01,3.86195e-01,-2.46546e-01,1.98615e-02,7.13917e-01,4.10439e-01,2.72560e-01,
2.65814e-01,8.07923e-01,-2.08467e-02,1.25784e-01,6.06794e-01,4.76755e-02,-3.55994e-01,-3.83026e-01,-3.21604e-02,2.07171e-01,-3.30484e-01,-8.74132e-03,-8.42324e-02,-4.90866e-02,-8.39873e-03,-9.51084e-02,-1.04830e-01,-9.85244e-02,-1.04839e-01,5.40550e-01,-1.19792e-02,-6.26481e-02,1.73926e-01,-3.87059e-02,-4.33346e-01,-1.13079e-01,-1.12768e-02,-6.57048e-02,-3.11743e-01,-4.61011e-02,1.39591e-02,-3.48106e-02,4.08376e-03,6.64913e-01,-1.44218e+00,-2.12077e-01,4.41901e-02,1.42594e-01,-4.70353e-01,-1.71562e-01,3.06486e-02,-2.63192e-02,5.55603e-02,-5.63508e-01,-2.81784e-01,
-4.14127e-01,-1.20614e-01,-3.94613e-01,1.78775e-01,2.10471e-01,1.54488e-02,2.87553e-01,9.17771e-01,-4.39273e-03,4.07393e-01,1.08248e-01,-2.96846e-02,-1.42740e-01,8.26207e-04,4.85926e-02,3.79122e-02,-2.24825e-02,1.25643e-01,1.13078e-01,1.12392e-01,5.19638e-02,4.03455e-01,3.17347e-01,1.66109e-02,1.44955e-01,-4.91085e-01,3.94059e-03,2.03726e-02,-6.94469e-01,-2.30715e-02,1.40424e-04,-2.70942e-02,3.83939e-02,-2.34460e-01,1.48121e+00,6.49985e-02,-4.74285e-03,2.87603e-01,-3.79016e-01,-5.96799e-01,7.30506e-02,-2.47862e-02,3.76406e-01,-1.54649e-02,3.69421e-01,
-2.19127e-01,-5.93580e-01,3.49964e-01,1.67577e-01,-1.05048e-02,-8.79052e-03,1.92583e-01,1.52651e-01,-4.51256e-02,5.20904e-01,3.83786e-02,-1.58796e-02,2.58479e-02,-1.49932e-02,1.54411e-02,6.16645e-01,-3.62838e-01,-4.06513e-01,6.12289e-01,-4.01749e-01,-1.88736e-02,-3.05796e-01,-2.95766e-01,-4.71882e-02,-2.44617e-01,8.34749e-01,-2.83017e-02,-2.61494e-02,-1.05923e-01,4.10138e-02,-3.32619e-02,2.47937e-02,3.26212e-02,1.69952e-01,1.25646e+00,1.31503e+00,-4.33953e-02,1.57415e-01,1.59137e-01,5.54326e-01,5.32591e-02,-3.85778e-02,-1.04246e+00,6.99160e-01,1.25316e+00,
8.57898e-02,7.63091e-02,2.15675e-01,-2.21967e-01,-5.17141e-01,-4.83476e-04,-3.23885e-01,-2.57793e-01,2.22914e-02,3.40686e-01,-1.41291e-01,-5.36907e-02,-1.15673e-01,-8.16378e-05,-1.92225e-02,2.84300e-02,-8.52498e-01,1.24024e-01,7.96387e-01,6.54845e-01,4.11158e-03,2.60591e-02,8.32951e-01,3.66591e-02,-1.85469e-01,1.24891e-01,-4.39417e-02,1.49514e-02,2.00057e-02,-4.40950e-02,-3.72885e-02,4.77830e-02,-6.77909e-03,4.32191e-02,7.51519e-01,1.39232e-01,3.58606e-02,-4.63424e-01,-4.37056e-01,-2.19347e-01,-1.03803e-01,8.39407e-03,-2.24723e-01,1.56871e-01,-5.47221e-02,
-2.40728e-01,2.34070e-01,-5.30546e-01,3.23487e-03,1.00817e+00,2.36646e-02,1.07629e-01,-2.46803e+00,2.25297e-03,8.56647e-01,9.41649e-01,4.19167e-02,-7.09058e-01,-5.24951e-03,-4.91206e-02,-3.75151e-01,-2.15108e-02,-4.38592e-01,-4.79107e-01,3.33197e-01,4.83916e-03,-1.63676e-01,2.49250e-01,4.38560e-02,-1.85221e-01,1.03599e-01,-9.17872e-03,5.98418e-04,5.90257e-01,3.29483e-02,-2.17636e-02,2.17793e-02,-4.48844e-02,-1.24475e-01,5.86845e-01,2.72585e-02,2.71876e-02,4.99967e-01,7.65106e-01,3.44328e-01,-2.40715e-01,-2.77475e-03,1.13025e-01,-2.65603e-02,1.03319e-01,
-9.52378e-02,4.00194e-01,8.35592e-02,2.14326e-01,2.74862e-01,4.37579e-02,1.02582e-01,7.31907e-01,-4.19719e-02,1.26467e-01,5.72021e-01,2.52367e-02,-2.07624e-01,-2.81418e-02,1.31779e-02,-9.12231e-02,3.78928e-01,3.42909e-01,1.73773e-01,1.52636e-01,-4.63579e-02,-1.79763e-02,-1.79661e-01,-3.19893e-02,-1.31126e-02,8.09306e-02,3.52570e-02,-1.08761e-03,-1.60451e-01,2.25737e-02,-1.42761e-02,4.20165e-02,4.36062e-02,5.20005e-02,1.15403e+00,2.06949e-01,-1.73436e-02,-2.23280e-01,1.82703e-01,4.26024e-01,3.21472e-02,-3.37136e-02,-4.32224e-01,1.04861e-01,2.78737e-01,
5.98183e-02,2.42511e-01,-4.57824e-02,-6.95120e-01,-2.35603e-01,-4.46016e-03,-5.83173e-01,1.22045e+00,-2.00012e-02,-4.31822e-02,2.95538e-01,-1.89676e-02,-3.36439e-01,-6.38951e-02,-3.90253e-02,-5.02024e-01,-1.67896e-01,-1.77930e-02,-3.10656e-01,-9.83461e-01,-7.75149e-03,1.08220e-01,3.18867e-01,-4.10985e-02,3.93921e-02,1.26910e+00,-1.75647e-02,-1.01033e-02,-8.42092e-02,2.38822e-02,4.85569e-02,7.52196e-05,-8.17038e-03,2.25907e-01,-3.01983e-01,8.58914e-02,2.71969e-02,-3.06239e-01,-3.82295e-01,8.27373e-01,-4.13044e-02,1.02513e-02,-1.52120e-01,-4.89328e-01,2.42207e-01,
2.09836e-01,-5.68029e-01,-7.42200e-02,-1.20938e-01,3.06352e-01,-5.85880e-03,-1.98833e-02,1.00126e+00,-2.88424e-02,-1.06555e+00,-3.48509e-01,-7.12871e-05,-9.77770e-02,-3.99803e-04,-1.34975e-02,-7.97998e-03,6.27537e-01,5.42571e-01,3.48479e-01,-4.39189e-01,-2.70133e-03,-4.60312e-02,6.57996e-02,1.89890e-02,6.00836e-01,-8.49548e-02,-2.78767e-02,1.97854e-02,-1.74287e-01,-1.88870e-02,-1.94546e-02,-1.78041e-02,-2.66871e-02,1.03810e-01,4.68262e-01,-2.85086e-01,1.11367e-02,2.99250e-01,3.12159e-01,-1.11977e-01,1.05772e-02,5.62650e-02,4.34426e-01,-5.95819e-01,-2.03448e-01,
2.55735e-01,-2.67121e-01,1.43790e-01,-8.16067e-02,6.82161e-01,7.27367e-03,-2.45667e-01,-4.96539e-01,-3.00068e-02,-1.85084e-01,1.86970e-01,8.43094e-03,1.95160e-01,-5.49663e-02,3.15961e-02,-6.18800e-02,6.67793e-02,4.97403e-01,2.06672e-01,4.24273e-01,2.47399e-02,-9.86169e-02,-7.38076e-02,-4.72669e-02,-2.21486e-02,-1.55504e-01,1.09618e-02,-1.74773e-02,1.45726e-01,-7.53374e-03,3.81290e-02,4.23489e-02,-5.60271e-03,2.18914e-01,1.14455e+00,3.22621e-01,2.17016e-02,-2.33006e-01,3.86526e-01,5.13532e-01,-1.39388e-01,4.18009e-02,4.56839e-01,-5.57069e-01,2.28893e-01,
-4.59602e-02,-3.26451e-02,2.29336e-02,1.20948e-02,-3.51289e-02,7.52183e-03,-1.56963e-02,-4.12702e-02,2.17541e-02,2.76526e-02,8.19179e-03,-4.22431e-02,2.02986e-02,2.63548e-02,3.93772e-02,-5.76764e-02,-5.14691e-02,-3.09327e-02,-5.45680e-02,-4.54238e-02,6.06424e-03,-3.65750e-02,-1.29418e-02,-2.77510e-02,1.90082e-02,-1.91080e-02,-2.26566e-02,-2.65528e-03,-3.61183e-02,1.15455e-02,-3.59624e-02,1.42084e-02,3.32056e-02,-4.99116e-02,-4.30358e-02,3.98948e-02,-4.94706e-02,-3.49539e-02,8.95274e-03,-8.10656e-04,-2.79512e-03,2.86863e-02,-9.00659e-03,2.37414e-02,-3.06747e-02,
4.43357e-02,-3.27048e-01,6.38261e-01,2.03370e-01,-7.58073e-01,-3.34807e-02,2.73274e-01,-4.65958e-01,2.72282e-03,-6.54201e-02,5.95927e-02,8.48880e-03,1.00657e-01,2.18322e-02,3.25115e-02,-2.95713e-01,-1.01242e-01,-6.20415e-01,5.18359e-02,-2.51082e-01,-7.55947e-03,-3.90161e-02,6.36397e-01,1.38829e-02,3.25238e-01,-8.50821e-02,-4.68596e-02,-2.25381e-02,2.12012e-01,2.91543e-02,-1.16627e-02,1.75684e-02,-2.31493e-02,5.84933e-01,-5.46719e-01,-3.20444e-01,-4.60608e-02,1.34663e-01,2.64791e-01,1.50758e-01,-5.20572e-02,5.14947e-03,-5.54758e-01,-1.90070e+00,6.02673e-03,
-4.80328e-01,1.17830e+00,7.50350e-01,-5.27689e+00,-8.38336e-01,-4.50797e-02,2.85319e-02,9.58972e-01,-3.72974e-02,1.39578e-01,2.43110e-01,-2.39563e-02,-2.28998e+00,1.22418e-02,-2.30494e-02,-1.17606e-03,-1.51952e-01,-1.70780e-01,4.38605e-01,1.47419e-01,-2.23918e-02,2.30264e-01,-1.41736e+00,2.62878e-02,-1.13557e+00,-5.78965e-02,1.30834e-02,-1.10363e-02,-2.73641e-01,-1.76584e-03,-4.68716e-02,-3.88668e-02,-2.47822e-02,-4.07992e-01,1.32797e+00,1.33019e+00,-2.61575e-02,6.62146e-01,2.47473e-01,6.20834e-01,-4.01532e-03,1.67810e-02,3.70504e-01,1.47841e+00,-8.66446e-01,
-8.41602e-02,-9.20666e-01,-1.33073e-01,-3.01410e-01,3.46389e-02,2.07104e-02,-2.27466e-01,-1.25437e+00,-3.40422e-02,3.06515e-01,7.16582e-02,2.47322e-02,-1.98931e-01,-4.68671e-02,-1.33649e-03,-2.03859e-01,2.83329e-01,-9.30636e-02,-3.74550e-01,4.94492e-01,-1.33159e-02,1.32284e-01,2.50955e-01,-4.32989e-02,2.27367e-01,6.22237e-03,1.86473e-02,-2.86743e-02,7.01523e-02,-2.92577e-02,1.93897e-02,-3.97869e-02,5.58925e-02,-4.67762e-01,5.04946e-01,2.69601e-01,9.89369e-03,2.89189e-01,1.30645e-02,2.21853e-01,2.04498e-01,-8.14801e-03,3.79365e-02,-8.71162e-01,-6.92687e-01,
-6.73194e-02,5.63124e-01,3.89029e-01,7.05470e-01,-1.51801e-01,-1.92570e-02,2.00312e-02,7.84992e-01,1.83068e-02,3.06380e-01,6.72313e-02,-1.86491e-02,-6.34835e-02,-3.32702e-02,5.57822e-02,-4.02071e-01,-1.90037e+00,4.21923e-01,1.09798e+00,-3.34743e-01,4.05039e-04,-1.45149e-01,-2.01861e-01,3.66411e-02,2.25030e-01,-7.35687e-02,-3.25007e-02,8.62576e-04,-1.73749e-01,3.26268e-02,5.56196e-02,-3.48940e-02,5.22018e-02,5.35157e-01,-1.59987e+00,4.85206e-01,4.58349e-02,1.33139e-01,-3.40650e-01,-3.77421e-02,-1.29905e-01,9.00933e-03,-1.03153e-01,-2.76285e+00,4.09231e-01,
-2.91409e-02,1.52464e-02,-2.48792e-02,-5.66637e-02,2.00237e-02,-3.13687e-02,2.87276e-02,-4.95819e-02,3.60252e-02,-6.74836e-02,3.77240e-02,-3.44677e-02,-1.80217e-02,-3.80496e-02,-2.33007e-02,-2.59207e-02,8.37934e-03,-3.94695e-02,1.93422e-02,-1.21334e-02,-4.60962e-02,-4.95107e-02,-1.35458e-02,3.58424e-02,1.01954e-02,-4.25820e-02,-3.97515e-02,9.59108e-03,-1.09718e-02,-4.84919e-02,2.50912e-02,6.98892e-03,-3.96397e-02,5.27770e-03,3.39899e-02,-3.66898e-02,-3.01362e-02,-3.49095e-02,-5.03134e-02,3.23597e-02,-2.27794e-02,3.16987e-03,-1.56889e-02,5.63895e-03,-3.62923e-02,
-1.02775e-01,5.01851e-01,-3.91174e-01,1.95337e-01,2.99449e-01,3.45825e-02,-2.48694e-01,2.84749e-02,5.54577e-02,-7.02715e-02,-5.26672e-01,1.66385e-03,3.53997e-01,3.87163e-02,-4.09985e-02,5.10773e-01,-7.97290e-01,-6.73792e-02,1.21233e-01,-3.66074e-01,1.23524e-02,8.99534e-01,-4.12880e-02,-4.40090e-02,5.82572e-02,-2.39460e-01,-4.86833e-02,4.48831e-02,1.26881e+00,-2.44098e-02,2.46688e-04,-2.62545e-02,-3.51698e-02,4.94626e-01,1.94457e+00,1.22977e+00,5.98357e-04,5.60689e-01,-1.10208e+00,-3.05673e-01,-1.04913e-01,5.09596e-02,-8.95267e-01,-5.63592e-01,8.55320e-01,
-2.27156e-02,1.11247e+00,-5.87965e-01,-3.76200e+00,3.68753e-01,1.57748e-02,-2.58194e-01,-2.94463e-03,-1.47652e-02,6.74581e-01,3.86006e-01,2.51899e-02,-2.81290e-01,-3.88303e-02,-1.85235e-02,-2.75046e-01,3.43323e-01,-3.63092e-01,1.82019e-01,-1.50969e-01,4.85271e-02,2.80774e-01,1.63233e-01,-2.93719e-02,2.51840e-01,-9.44019e-02,-4.00637e-02,1.69803e-02,4.50919e-01,-1.08199e-02,-1.51606e-02,-9.02953e-03,3.71327e-02,3.68674e-01,-3.60722e+00,1.08151e-01,4.69406e-02,-2.22960e-01,3.30755e-02,8.07622e-01,-2.10781e-02,2.66337e-02,2.87352e-01,1.20096e+00,1.28986e+00,
-3.03362e-02,-1.37203e-01,-3.63743e-01,1.69817e-02,-2.49606e-01,2.68677e-02,4.57328e-01,-2.67829e-01,3.75397e-02,-2.05273e-01,2.09908e-01,-8.73594e-03,-1.75869e-01,-1.50718e-02,1.71737e-02,-2.47455e-02,8.22276e-03,-2.42362e-02,-3.62391e-02,4.40976e-01,4.60680e-02,4.90038e-02,5.36020e-01,2.81845e-02,-1.53717e-01,2.08855e-01,-1.84721e-02,2.56421e-02,-1.16544e-02,-3.51460e-02,4.82823e-02,-1.29834e-02,3.97160e-02,-2.31211e-01,-9.23198e-01,-1.89985e-01,-1.77477e-02,3.35676e-01,8.92783e-01,1.76045e-03,-1.56336e-01,5.90972e-02,-8.69072e-02,-1.18143e-01,-1.90805e-01,
-3.50918e-02,1.54240e-02,2.10078e-02,-2.55259e-02,7.76849e-03,-3.20100e-02,-5.75064e-02,-3.64862e-02,3.11809e-02,4.37253e-02,3.91662e-02,-1.85362e-03,-2.29929e-02,-2.53574e-02,2.77025e-02,-2.49383e-02,-4.86134e-02,1.23101e-02,1.80857e-03,3.75892e-03,2.73299e-03,1.57523e-03,1.03825e-02,2.80088e-02,-1.66282e-02,-2.79415e-02,-1.04574e-02,3.48359e-03,-2.86208e-02,3.98055e-02,3.42290e-02,-2.77746e-02,3.89971e-03,2.75849e-02,3.76688e-02,-3.31658e-02,4.81070e-03,3.46133e-02,-3.27470e-02,2.14330e-02,-5.66418e-03,-3.96651e-02,-2.50109e-02,-3.74386e-02,-2.89514e-02,
6.75722e-02,
-1.88384e-02,
-1.33694e+00,
-1.75649e+00,
1.20046e+00,
-1.92007e-02,
2.05340e-01,
1.84931e-01,
-3.97349e-01,
2.48840e-01,
-6.77238e-02,
-2.32828e-02,
8.77922e-02,
-1.04675e+00,
-5.96120e-02,
-3.56418e-01,
-1.44813e-02,
-1.25186e-01,
-2.32211e-01,
5.22046e-01,
-2.27896e+00,
-2.69012e-01,
-1.33779e-01,
-5.10014e-02,
1.83161e-01,
-5.94877e-01,
5.23415e-01,
4.95991e-01,
6.34992e-01,
-2.20640e-01,
-5.29967e-01,
-4.43477e-01,
5.45297e-01,
1.16444e-01,
-4.85989e-01,
-2.88048e-02,
-8.26876e-02,
-3.74193e-01,
-4.37315e-02,
4.33600e-01,
-3.62666e-02,
5.65929e-02,
-1.05659e+00,
-2.73512e-01,
-3.53580e-02,
-2.41497e-01,-1.55979e-01,2.40263e-01,-2.43647e+00,8.12793e-03,2.37456e-01,5.63212e-01,-7.25007e-01,7.33811e-02,2.63599e-01,9.61590e-02,-3.50915e-04,-7.41807e-02,1.23775e+00,-5.84959e-02,-2.89389e-02,4.09378e-02,2.75087e-01,-1.55056e-01,-7.63519e-01,-3.70645e-01,-2.09545e-01,-2.54798e-03,4.77801e-02,2.57625e-01,-4.56720e-01,-8.44220e-02,-1.55627e-02,-2.26209e-01,-1.55260e-01,-2.59337e-01,-2.22542e-02,1.00425e-01,-3.21791e-01,-3.10778e-01,2.24974e-02,-6.30186e-02,-8.50320e-01,-1.09522e-01,-8.34213e-02,1.10608e-02,2.36965e-02,-8.52242e-03,5.81149e-02,-4.98376e-02,
-1.99705e-02,-5.59429e-01,-8.38006e-01,8.37202e-01,1.93048e-01,-1.31981e+00,-5.26104e-01,-2.94830e+00,5.89948e-01,-5.62708e-01,9.30256e-01,-3.30109e-02,-2.62401e-01,5.45072e-01,3.79432e-02,-3.98580e-01,-3.38131e-02,1.58613e-01,-1.85828e+00,3.91675e-01,-1.12339e-03,-4.12254e+00,5.59200e-01,1.07470e-01,-3.14408e-02,3.07589e-01,1.44954e-01,9.94618e-02,-2.05012e-01,7.19985e-01,-2.76133e-01,7.41153e-02,2.19956e-01,4.80643e-02,-3.91376e-01,-5.71104e-03,1.87566e-01,3.07435e-01,2.80050e-01,3.21317e-01,9.98513e-03,-2.37720e-01,8.05946e-01,-4.61626e-01,2.42271e-03,
-3.89174e-01,6.95626e-02,1.42838e-01,1.08447e+00,2.74018e-01,1.60293e-01,2.73009e-01,9.12709e-01,2.90243e-01,1.73260e-01,8.84034e-01,-3.07876e-03,6.71173e-01,1.36711e+00,-2.07513e-02,4.75978e-01,1.54351e-02,-3.26814e-01,-6.84613e-01,1.27977e+00,1.44767e+00,1.28169e+00,8.42410e-01,-1.28097e+00,-3.07744e-02,6.74208e-01,4.14776e-01,8.01481e-01,1.81043e-01,1.35118e-01,-1.57074e-01,1.49770e+00,4.67374e-01,7.28990e-01,-7.90091e-01,-1.05189e-02,-5.98695e-01,2.26760e-02,1.07576e+00,3.02031e-01,-1.89428e-02,2.19324e-02,2.05198e+00,-1.63586e-02,-1.69908e-02,
-3.02180e-01,6.56652e-01,7.93338e-02,-3.69460e-02,-5.04322e-02,4.00635e-01,-2.63270e-01,-6.18088e-01,-5.31352e-01,6.82659e-02,1.44424e-01,-4.43634e-02,-1.13269e+00,-1.24483e+00,-3.35780e-02,5.08060e-01,3.15283e-02,-3.33179e-01,1.52361e-01,-1.43870e+00,-2.44148e-01,-3.82104e-01,7.14724e-01,8.73650e-01,-1.37915e-01,-1.34512e+00,4.02984e-02,1.13016e-01,1.46851e-01,-3.23838e-01,-1.53319e+00,-1.59227e+00,1.45356e-01,-2.44172e-01,-3.92399e-01,3.98564e-02,2.21061e-01,-2.32715e-01,8.93174e-02,1.91967e-01,3.77534e-02,4.45265e-02,4.02853e-01,-2.02469e-01,4.39610e-03,
-1.01678e-02,1.40623e-02,-1.87289e-02,-4.07188e-02,-2.84678e-02,-2.62285e-02,-9.16224e-03,-1.77507e-02,-2.21342e-02,-5.55344e-02,-2.94911e-02,-9.06106e-03,2.25212e-02,3.80511e-02,2.19252e-03,-8.92208e-04,1.48534e-02,-3.10806e-02,-4.53748e-02,1.62604e-02,2.93747e-02,-5.91517e-02,9.56543e-03,-3.94605e-03,-3.55369e-02,-2.59843e-02,-5.90794e-02,-1.31284e-02,5.39808e-03,-3.39030e-02,2.07891e-02,2.91257e-02,-3.62740e-02,-4.70571e-02,-9.20401e-03,-2.98735e-02,2.47269e-02,-3.39838e-03,1.19568e-02,-2.67735e-02,-1.21679e-02,1.98952e-02,-1.38045e-02,-4.23184e-02,-8.12716e-03,
2.15007e-01,1.46059e-01,2.22859e-01,-4.51317e-03,1.43879e-01,4.21710e-02,-8.37545e-01,-1.04504e+00,3.22501e-01,-1.14470e+00,-1.52669e+00,4.31192e-02,-1.38191e+00,4.21652e-01,-8.73041e-02,-8.55387e-02,-4.29331e-02,-8.92156e-02,-2.06486e-01,-2.27264e-01,-1.25050e+00,-2.30947e-01,-5.89919e-02,-1.02582e+00,5.30702e-01,7.99619e-01,-9.12725e-02,1.25413e-01,-3.89185e-01,9.71569e-02,-1.43712e-01,-1.94754e-02,-7.71895e-01,-6.05366e-01,-1.78726e-01,2.34433e-02,8.11720e-01,-3.80036e-03,-6.94252e-01,1.26007e-01,-4.31452e-02,5.45206e-02,-2.67297e-01,-7.58498e-01,1.39153e-02,
3.31953e-04,1.85888e-02,-6.64851e-02,-3.84777e-02,1.61878e-02,1.74671e-02,-2.87030e-02,-3.70262e-02,2.82692e-02,2.52955e-02,-4.97566e-02,-4.48259e-02,-3.27591e-03,-1.49517e-02,4.90063e-02,-2.20434e-02,8.75977e-05,1.77756e-03,-4.50738e-02,9.14499e-03,-4.46654e-02,-2.63600e-02,-5.36672e-02,-1.38754e-02,-1.46772e-02,-3.10036e-02,1.93246e-02,2.41863e-03,-4.19042e-02,-4.29503e-02,-2.87013e-02,-1.09683e-02,-4.14176e-02,-5.63751e-03,2.02786e-02,4.95896e-02,1.97835e-04,5.56985e-03,3.94420e-03,-3.12674e-02,-1.27542e-02,6.33132e-03,3.24757e-02,-4.16897e-02,-4.39097e-02,
4.86436e-01,-2.34094e-01,-6.85816e-02,1.74670e+00,1.03380e-02,7.10083e-02,8.28255e-01,4.36364e-01,-2.47028e+00,7.06966e-01,-1.83939e+00,3.55516e-02,-7.85618e-01,-9.52708e-01,-3.78446e-04,-1.31799e+00,-3.90840e-02,-2.02799e-01,-2.92305e-01,1.87282e-01,9.36897e-01,-2.91728e-01,-1.30349e+00,-2.37000e-01,2.76719e-01,7.50534e-01,-3.48009e-01,1.13011e-01,-1.75186e-01,1.59848e-01,-9.97080e-01,-4.54232e-01,2.58044e-01,-5.45814e-01,-2.39879e+00,4.35607e-03,-3.28807e-01,8.94647e-01,-6.66985e-01,-9.05164e-02,2.27690e-02,-9.56167e-02,1.20024e+00,-3.52289e-02,-1.86933e-02,
-1.85492e-02,-1.34596e-01,2.66714e-01,-2.60936e+00,-1.00809e-01,5.97530e-01,3.34732e-01,1.25984e+00,9.10986e-01,-5.33516e-01,1.85662e+00,-2.87171e-02,-2.50025e-01,-1.52851e+00,2.26372e-03,9.46977e-01,-3.50386e-02,-2.20340e-01,3.22188e-02,5.49512e-01,1.65491e+00,-4.92295e-03,-1.60541e+00,-2.00959e+00,-9.50128e-01,8.60274e-01,-1.96165e+00,1.10572e-01,-5.37430e-02,5.15017e-01,-1.17243e+00,1.28247e-01,8.91900e-01,3.94130e-01,1.60219e+00,-3.88583e-02,1.31951e-01,1.48429e+00,-8.75122e-01,-8.57340e-01,2.00403e-02,-6.98491e-02,5.95639e-01,1.06270e-01,-1.72438e-02,
-5.18852e-02,-2.65257e-02,2.44511e-02,-2.44950e-03,6.06848e-04,-2.07874e-03,-4.14720e-02,-2.64923e-02,2.40678e-02,2.13811e-02,-5.61021e-03,3.67463e-02,-4.67899e-02,-1.00786e-02,-1.12352e-02,5.75124e-03,-2.28076e-02,-5.76023e-02,-2.63280e-03,-1.32108e-02,-3.73021e-02,-6.74580e-02,9.88775e-03,2.52170e-02,-1.16442e-02,-1.91243e-02,-5.32156e-02,-6.03266e-02,-1.39362e-02,5.21337e-03,-4.48880e-02,2.75448e-02,-3.85792e-02,1.19722e-02,-1.11289e-02,3.84680e-02,-2.48417e-02,-4.66571e-02,1.31383e-03,-4.32837e-02,2.92265e-03,-5.50640e-02,8.77524e-03,-4.20762e-02,-2.52606e-02,
-5.71579e-02,6.78253e-01,1.33343e-01,-4.66585e+00,2.65128e-02,5.04111e-01,-3.21171e-02,-1.00043e-02,-1.30552e+00,7.50570e-01,-1.04664e-01,-4.88856e-02,6.32942e-02,-5.87373e+00,4.89534e-02,-2.70769e-01,2.58314e-02,2.91685e-01,-2.13581e-01,-2.02488e-01,8.97661e-01,3.56172e-01,4.43339e-01,-5.50614e-01,-2.87847e-01,-1.90536e+00,-2.97401e-01,-1.22664e-01,-6.04321e-02,-1.10579e-01,-6.60158e-01,-6.83784e-01,-8.63668e-02,-7.56296e-02,4.65857e-01,9.25569e-03,2.82754e-01,-3.93184e-01,-8.78733e-03,-6.29097e-01,-4.34345e-02,-2.25995e-01,4.75251e-02,1.17308e-01,-3.58471e-02,
7.63691e-02,1.26457e-01,-1.55896e-01,-4.40255e+00,-8.20316e-02,3.83013e-01,2.07860e-01,5.10155e-01,1.69752e-01,1.62329e-01,1.47899e+00,-3.51094e-02,-3.85056e-01,-7.18071e-02,-2.52543e-02,-2.17620e+00,-1.21555e-02,7.92689e-02,3.17980e-01,5.71202e-01,-1.70421e+00,-1.05042e+00,-7.21677e-01,-1.19251e+00,-5.32737e-01,-5.74022e-01,-3.53313e-01,8.30950e-01,2.38957e-01,1.82662e-01,1.03509e+00,-1.54360e+00,-2.95123e-03,5.83004e-01,-1.45335e-01,7.35731e-03,4.34475e-01,6.28551e-01,-1.31967e+00,-1.56171e+00,1.75473e-02,-4.69766e-01,2.99812e-01,-1.05112e-01,-1.87586e-03,
3.97840e-01,2.25430e-01,1.02069e-01,2.69091e-01,6.07847e-03,-2.40168e-01,-1.19215e-01,-7.38097e-01,-8.74135e-01,4.76970e-01,-1.20677e-02,2.08083e-02,-1.52757e-01,7.25543e-01,6.92390e-02,3.77125e-01,-2.33928e-02,-5.14350e-02,-4.43029e-02,-6.13271e-02,-1.08149e+00,-5.36162e-01,1.92960e-01,1.70900e-01,-2.86885e-01,5.21557e-01,-6.79972e-01,-2.62141e-01,-3.24295e-02,1.74997e-01,-5.95529e+00,-1.28892e-01,-6.36743e-02,3.94298e-01,5.04909e-02,-8.05298e-03,9.71320e-02,3.17330e-01,-1.00687e-01,4.67097e-02,5.45207e-02,8.35139e-03,1.80667e-01,8.62386e-01,-8.11243e-03,
4.48119e-02,1.13680e-01,9.12918e-02,-6.21094e-01,-7.71819e-02,-5.88430e-01,8.23390e-01,-7.07667e-02,-5.27814e-01,-3.62791e-01,1.75081e+00,4.59752e-03,-9.58557e-01,1.29284e-01,8.31137e-02,-1.20363e+00,4.73036e-02,-4.31250e-03,-2.79117e-02,-6.64286e-01,-1.11955e-01,-1.62786e-01,7.51425e-03,-5.41716e-01,-2.29838e-01,-2.37527e-01,1.61928e-02,5.06121e-01,3.75401e-01,2.58890e-01,7.75627e-01,3.24104e-01,4.15379e-02,-5.19889e-01,-1.63304e-01,-2.86487e-03,-2.35483e-01,-2.62675e-01,-8.29158e-02,-3.19032e-01,-3.08668e-02,1.26566e-02,-2.26639e-01,2.53797e-01,-8.45880e-03,
-2.75559e-01,3.12009e-01,1.79012e+00,2.64372e+00,-6.67883e-01,5.65986e-01,1.26885e-01,1.27516e+00,1.14907e-01,5.76014e-01,4.27839e-01,-1.20046e-03,1.22979e+00,1.58195e+00,-4.43899e-02,-3.72195e-01,-2.56649e-02,5.25294e-02,-1.85792e-01,7.02477e-01,3.42197e-02,-1.04274e-01,-5.45921e-02,1.43321e+00,-6.56970e-02,-4.81694e-02,7.73934e-02,9.62893e-03,-4.88908e-01,9.42900e-02,3.07973e+00,-3.45017e-02,2.29757e-01,1.37226e-01,4.54547e-01,-2.42809e-02,6.10640e-03,1.91261e+00,-1.11811e-01,9.76613e-02,1.70159e-02,-7.95430e-02,3.63213e-01,1.72632e-01,-3.51781e-02,
5.31019e-02,-3.14186e-02,-4.85518e-02,-3.75377e-01,-1.74013e-01,1.54900e-01,2.19841e-01,6.35203e-01,8.37981e-02,2.68908e-01,4.74959e-01,-1.26996e-02,5.91153e-01,1.32848e+00,3.62707e-02,7.77978e-02,4.89106e-03,-1.12804e-02,2.98582e-01,-1.12166e-01,9.58945e-01,-1.61330e-01,9.33644e-02,-1.34994e+00,1.25125e-01,-9.38539e-01,-1.90531e-01,-2.72875e-01,8.18774e-02,1.30269e-01,1.37332e+00,2.39595e-01,-2.62052e-01,-1.05814e-01,2.48186e-01,-4.97078e-02,3.16017e-01,1.28844e+00,1.29212e-01,-2.74054e-04,-2.98557e-02,-8.19606e-02,-5.20246e-02,1.82449e-01,4.13033e-02,
-2.15858e-01,2.31526e-01,-1.10974e-01,1.89318e-02,-5.76834e-03,-2.72076e-01,-7.65883e-02,-1.33800e+00,-2.53634e-01,-2.44697e-01,8.22605e-01,3.86115e-02,-4.71957e-01,2.59356e-01,4.14158e-02,-3.58300e-01,2.80049e-02,-8.44536e-03,-1.28162e-01,5.17684e-01,-7.22543e+00,-8.94068e-01,2.54137e-01,2.83012e-01,2.16925e-01,-4.91742e-02,2.97196e-01,-1.19737e-01,6.54453e-02,1.12163e-01,-9.32850e-02,-5.43629e-01,-5.66180e-02,-2.11564e-01,2.18205e-01,-4.33834e-02,4.69432e-01,-1.11669e+00,-1.96416e-01,-1.11664e-01,4.19132e-02,1.75225e-01,1.15753e-01,2.44330e-01,1.06734e-02,
-5.51088e-02,1.17413e+00,-1.86466e-01,-1.38145e-01,-1.64820e+00,2.90824e-01,5.81455e-01,6.80808e-02,8.91394e-01,2.68492e-02,-6.04399e-04,-1.54597e-02,-1.31030e-01,5.50576e-01,-8.88295e-03,-1.49358e+00,-1.55899e-02,5.98634e-03,-1.71150e-01,-6.29459e-01,-3.11180e+00,1.01845e+00,-6.81898e-01,4.06187e-01,-4.95672e-01,1.09423e+00,5.16814e-01,-5.14439e-01,-3.21453e-02,-1.85552e-01,4.27077e-01,5.59838e-02,2.71025e-03,-2.60755e-01,1.06196e-01,2.40776e-02,4.44595e-01,-1.41872e-01,3.79472e-02,-2.28677e-01,2.43664e-03,-1.43299e-01,-8.43771e-02,-2.12886e-01,4.67639e-02,
4.45609e-01,-5.29688e-01,-3.16482e-01,1.79508e+00,-6.52148e-03,-1.22977e-01,8.44161e-01,2.93954e-01,3.73153e-01,-3.78974e-01,-3.70320e-01,-1.62637e-02,4.80253e-01,-5.58372e-01,-3.50946e-02,-1.08961e+00,-1.10128e-02,-4.63191e-01,-1.85631e-01,5.32930e-01,3.49888e+00,2.00923e+00,-1.97631e+00,-1.21942e+00,-6.88590e-02,2.64569e-01,3.11315e-01,4.71957e-01,1.04243e-01,5.00211e-01,-1.28757e+00,5.20236e-01,2.27842e-01,1.82522e-01,4.74465e-01,4.47861e-02,-4.70132e-01,1.49683e+00,-5.65834e-01,-2.70361e-01,-1.22693e-02,-1.25032e-02,8.79722e-01,3.55937e-01,4.07450e-02,
-9.07122e-01,8.73319e-01,2.46139e-01,-1.02810e-01,-7.48736e+00,9.46741e-01,9.79946e-01,2.01762e+00,-1.36784e-01,1.11789e+00,2.43617e+00,-2.76165e-02,1.91073e+00,9.05668e-01,9.57072e-03,6.13198e-02,8.78384e-03,3.69916e-01,-5.33761e-01,1.87283e+00,-3.35408e+00,9.79585e-01,9.06586e-02,2.21554e+00,7.54988e-02,3.67709e-01,-5.90840e-01,1.19036e+00,-8.14914e-01,1.54636e+00,-1.23151e+00,8.74030e-02,-3.06828e-01,-4.07547e-01,3.39206e-01,-2.72108e-02,3.78230e-01,2.71102e+00,1.05148e+00,4.55444e-01,-1.09919e-02,1.04884e-01,2.35424e+00,1.45916e-01,2.89808e-02,
-1.31420e-01,3.94995e-01,1.53836e+00,1.40165e+00,2.15801e-01,4.25002e-01,1.32092e-01,7.83568e-01,-3.84271e-02,6.26215e-02,1.66171e-01,4.34635e-03,4.87088e-01,1.38075e+00,-1.27168e-02,-3.52044e-01,-2.98290e-02,-9.97367e-02,-2.11160e-01,8.25699e-03,-2.44643e-01,-1.79201e-01,1.64058e-01,6.59164e-01,1.99650e-02,-2.56273e-01,3.78879e-02,-1.26519e-01,-3.81616e-01,1.19180e-01,-6.97139e-01,-8.38478e-02,2.85418e-01,4.23730e-02,3.83822e-01,-4.30687e-02,-8.90054e-02,-1.18779e+00,1.98634e-01,-3.39817e-02,1.86839e-04,1.13582e-01,1.53454e-01,3.32349e-01,-3.58109e-02,
1.14776e-02,-4.47283e-02,-3.32041e-02,-2.11327e-02,-5.36324e-02,-5.01212e-02,4.49762e-02,-3.79050e-03,-5.07637e-02,-1.10743e-02,-3.44071e-02,1.40692e-02,-1.17412e-02,4.05038e-02,-1.41806e-02,3.42585e-02,-9.85150e-03,-2.63164e-02,-5.01373e-03,-2.10139e-02,-2.55341e-02,-2.76656e-02,3.35847e-02,4.62707e-02,6.78301e-03,9.58817e-03,-4.92154e-02,-4.92760e-02,-1.48533e-02,-1.77404e-02,2.01778e-02,9.33675e-04,-2.13777e-03,-2.44719e-02,3.42647e-04,4.31631e-02,1.02146e-02,-2.58768e-03,1.35014e-02,-1.32463e-02,3.21963e-02,-5.06585e-02,2.48722e-02,-5.38304e-02,3.48747e-02,
-5.57881e-01,-2.88980e+00,6.99283e-01,-5.82502e-03,3.61298e-01,-1.25722e+00,-2.63151e+00,1.85198e-01,-9.85053e-03,-4.21215e-01,2.78990e-01,3.53510e-02,-2.94602e+00,-5.52262e-01,1.06877e-02,2.34300e-02,-3.35530e-02,2.50273e-01,-1.11611e-01,-3.62698e+00,-4.75778e+00,-1.16532e+00,1.61339e-02,-1.34087e+00,-2.90213e-01,-5.77580e-01,3.23318e-01,1.34634e-01,-4.88889e-01,-2.82983e-01,-7.26208e-01,-4.16623e-01,-2.92062e-01,-2.25393e-01,3.41010e-01,2.98653e-02,1.69032e-01,2.22301e-02,2.18932e-01,-1.38072e+00,-5.02227e-02,8.44074e-02,-2.30207e+00,1.90425e-01,-4.33595e-02,
-2.17667e-02,-3.53056e-01,-1.61158e-01,-1.57497e+00,5.98996e-02,3.49471e-01,-9.04272e-01,-1.72333e-01,-4.10618e-01,4.42035e-01,-1.53216e+00,-2.12249e-03,1.69655e-01,-1.95644e+00,-1.31128e-02,-1.58590e-01,-1.24315e-02,2.78820e-02,3.32822e-01,1.21880e-01,1.05808e+00,3.13845e-01,1.34148e-01,-2.09277e-01,4.04125e-01,5.62838e-01,2.49603e-01,3.25693e-01,-4.89344e-01,1.11955e-01,-6.10352e-01,-1.06463e-01,1.58267e-01,-1.55789e-01,-5.91483e-01,3.40075e-02,1.30897e-01,-2.88050e-01,-9.44126e-01,1.51752e-02,8.47147e-03,-2.44491e-01,-2.78026e-01,3.52379e-01,-2.26388e-02,
1.54327e-03,-2.09053e-01,-8.12340e-02,6.18695e-02,-2.62726e-01,-7.68022e-03,1.02128e-01,2.41779e-01,-6.49732e-01,1.69207e-01,1.83886e-01,4.91827e-02,1.55299e-01,2.37124e-02,-3.20262e-02,-6.44814e-02,1.29625e-02,1.46120e-02,8.16125e-02,9.21868e-02,3.52278e-01,-1.28744e-01,-7.97144e-02,2.64246e-01,-6.21933e-02,3.96097e-01,-8.80558e-02,2.17453e-01,2.71236e-02,-1.20396e-01,3.93839e-01,4.04111e-01,4.63760e-02,-1.12879e-01,2.20770e-01,-3.89206e-02,-1.75076e-01,2.03966e-01,-2.94975e-01,6.20850e-02,-2.64873e-02,-2.19304e-01,5.36612e-01,7.81980e-03,4.07943e-02,
8.05953e-02,-3.89087e-01,-4.43769e-01,-1.56439e-02,-1.31444e+00,1.56844e+00,-4.92146e-01,2.24497e+00,2.15902e-01,2.51492e+00,3.07509e+00,-4.29491e-02,3.48224e+00,1.31481e+00,-4.90980e-02,-3.26620e-01,-1.12147e-02,-3.32139e-02,4.68390e-01,2.11741e+00,1.82941e+00,2.04529e+00,5.41635e-01,2.03576e+00,-2.69717e-01,7.74311e-01,1.80972e+00,-7.66363e-01,-7.75267e-02,4.74775e-01,2.87099e+00,1.07737e-01,4.81898e-01,-1.29991e-02,7.02932e-01,3.62342e-02,5.18497e-01,2.10549e+00,-5.49624e-01,-3.44174e-01,-2.71308e-02,-7.19319e-01,1.09960e+00,1.01416e+00,4.34455e-02,
3.79491e-01,4.88372e-02,-9.02960e-02,2.59265e-01,-1.10459e-02,-7.43258e-02,-4.57851e-01,-6.45949e-01,-2.29139e+00,4.52373e-01,1.90492e-01,-4.28187e-02,-7.67062e-01,-7.11437e-01,2.71869e-03,-1.87035e-01,5.11105e-02,-5.84672e-02,-3.93980e-02,-2.46671e-01,-7.17817e+00,-2.57949e-01,-1.47533e-01,5.19061e-01,9.60454e-02,-7.82195e-02,2.41468e-01,8.14829e-02,-2.07468e-01,1.44475e-01,2.29357e-02,5.85934e-02,1.62350e-01,-2.22080e-01,7.22093e-02,-1.76626e-02,2.01348e-01,1.05110e+00,-2.40106e-01,-6.04159e-02,7.42642e-03,3.18897e-02,1.41949e-01,1.61200e-01,4.04130e-02,
2.36366e-01,4.42098e-02,1.94131e-01,-2.63020e+00,1.35592e-01,4.71566e-01,1.70636e-01,2.96268e-01,-1.72541e-01,9.04479e-02,2.90141e-01,2.67261e-02,3.33742e-01,2.43464e-01,-4.40062e-02,3.93238e-02,-2.59269e-02,-2.64361e-01,1.01807e-01,-4.73689e-01,1.37297e+00,2.47867e-01,7.94390e-01,-3.50804e-01,-4.71214e-02,2.24378e-01,4.00549e-01,-6.48244e-02,-3.13050e-02,3.26236e-01,-3.38242e+00,-3.19429e-03,-5.71127e-01,1.37218e-01,-2.02445e-01,-1.27292e-02,-2.32590e-03,2.04400e+00,2.82447e-01,2.64432e-01,4.82909e-02,4.85547e-02,3.70568e-01,2.30518e-01,-3.68617e-02,
-8.94425e-02,3.81114e-01,-2.24140e-01,-1.82617e-01,-9.80759e-02,8.90717e-01,-8.94861e-02,-7.02285e-01,-4.38123e-01,2.26864e-01,7.84415e-01,-2.99806e-02,1.07175e-01,-5.37024e-01,-5.80301e-02,-4.64384e-01,-3.05724e-02,3.97269e-02,-1.97295e-01,2.29258e-01,-1.72899e+00,-2.07886e-01,-4.94828e-01,1.04769e-01,1.90638e-02,-3.35789e-01,3.01682e-01,1.35688e-01,-6.79859e-02,9.94819e-02,-3.36218e-01,-2.62462e-01,2.03102e-01,-3.43335e-01,-4.76226e-01,-2.85015e-02,-1.63756e-01,1.00965e+00,-2.33226e-01,2.64779e-01,3.07627e-02,-1.14369e-01,3.93791e-01,-1.05881e-01,3.04251e-02,
2.24254e-01,4.15847e-01,6.89290e-02,-3.12716e+00,-5.06384e-02,5.37873e-01,-8.07217e-01,-3.98248e-01,-2.93713e-01,-3.32100e-01,-6.78965e-02,-4.06316e-02,-1.33472e+00,-6.79746e-01,-5.42082e-02,-3.98551e-01,4.81354e-02,-1.27267e-01,-1.58034e-02,6.08934e-01,-4.90300e-01,3.22858e-02,2.43967e-01,-3.71453e-01,-4.62202e-01,3.03454e-01,-1.34590e-01,-3.32082e-01,-5.60086e-03,2.65313e-02,2.36399e+00,2.28397e-01,-1.91229e-01,2.61628e-01,-1.19807e-01,-8.28788e-03,3.82876e-02,-1.78817e+00,-2.14783e-01,-2.09428e-01,-2.15661e-02,2.60994e-01,-3.44608e-01,2.04673e-01,-2.38294e-02,
-5.13584e-01,1.34139e-01,-2.00712e-01,6.54741e-01,-9.46706e-01,-2.10319e+00,-4.56747e-01,-1.39620e+00,-5.79334e-01,-5.97475e-01,3.44963e-01,4.82377e-02,-1.10447e+00,5.26050e-01,-1.20350e-02,4.25868e-01,1.89766e-02,8.12190e-03,1.48281e-01,-1.14816e+00,-8.27390e+00,-6.12498e-01,4.79972e-01,2.57457e-01,3.89980e-01,1.88424e-01,3.31680e-01,4.91726e-01,-2.32303e-01,9.52402e-02,1.37515e+00,3.27924e-01,5.73661e-02,-2.75653e-01,-2.07116e-01,3.11397e-05,4.03846e-01,7.35701e-01,5.45184e-01,-2.22483e-01,-4.11402e-05,-1.74394e-02,9.14292e-02,-3.38784e-01,1.18187e-03,
-6.66908e-01,-4.17487e-01,-6.33591e-01,-2.07632e+00,1.63052e-01,-6.50891e-01,-1.51078e+00,-7.01265e-01,-9.60327e-01,-3.59774e-01,-2.33764e+00,-1.33714e-02,-1.46028e+00,1.15836e-01,-2.09628e-02,-1.75882e+00,-4.53206e-02,4.78925e-01,1.29533e-01,5.59074e-01,-8.70203e-02,-7.05607e-01,-2.35203e+00,1.42769e+00,-1.23902e+00,-1.38207e+00,-1.64805e+00,-1.55964e-01,-1.33588e+00,-6.39433e-01,-1.88104e+00,-1.64712e+00,5.55180e-01,-1.42458e+00,-2.48332e-01,-1.32491e-02,-4.90974e-01,1.89473e+00,-9.52618e-01,-1.09193e+00,-2.28913e-02,1.35619e+00,-1.17824e+00,3.04603e-01,7.31371e-03,
-1.37004e-01,1.63698e-02,9.49158e-02,-2.86906e+00,3.53984e-03,3.44030e-01,7.39771e-01,-4.35580e-01,-5.35761e-01,-1.76974e-01,-9.55627e-01,1.61158e-02,-3.97414e-01,-1.70245e-01,1.24976e-02,5.71527e-01,-1.15040e-02,1.13742e-01,-4.12886e-02,-4.19210e-02,-5.01494e+00,-9.07067e-02,4.88542e-01,5.71476e-01,-7.08652e-02,2.84383e-02,-4.06134e-01,1.56244e-01,6.36596e-02,6.62251e-01,3.59059e-01,-1.99857e-01,3.36815e-02,-4.61472e-01,3.43955e-01,-2.54020e-02,-4.43439e-01,1.33357e-01,6.84576e-01,1.05575e-01,-1.92583e-02,-1.58050e-01,2.91588e-01,-9.99765e-02,3.00988e-02,
